nep3 3 Al N C 
cutoff 8 5
n_max 12 8
basis_size 8 8
l_max 4 0 0
ANN 60 0
 -2.3720286e+00
  1.0118655e+00
 -8.2554018e-01
 -3.9170959e+00
  1.2556489e+00
  6.3927025e-01
 -2.9544222e-01
  2.3784678e+00
 -7.3146063e-01
  2.1050677e-02
 -2.5662180e-02
  1.3787463e+00
  4.6562757e+00
 -3.8759589e-02
  6.4505655e-01
 -1.3932604e-01
  5.3591543e-01
 -1.2113002e-02
  7.2942263e-01
 -2.1298829e-02
 -7.6644623e-01
  1.5429403e+00
 -1.7097795e+00
  8.2364035e-01
  3.6695963e-01
 -4.1398965e-02
 -2.8821769e+00
  4.0570654e-02
 -4.2289671e-01
 -9.1126215e-01
 -1.7559419e+00
 -6.2484909e-02
  5.2206893e-02
  4.4943634e-01
  1.8432911e-04
 -6.6126090e-01
  4.6170586e-01
 -1.1903465e+00
 -1.5272055e-02
 -2.4010488e-01
  9.0888643e-04
 -2.7149639e-01
  3.6299359e-03
  8.5690850e-04
  5.5357623e-01
  2.0722552e-01
 -1.6482625e+00
 -3.3339125e-03
 -1.0434023e-01
 -3.9545465e-01
  2.0469163e-01
 -2.4265225e+00
  1.6598198e+00
 -1.3971646e+00
 -1.9618218e+00
 -8.3931275e-02
 -3.6181101e-01
 -1.4295392e+00
 -1.1388493e-01
 -7.0042536e-03
 -6.0418267e-02
  6.2272173e-01
  2.2136383e+00
 -2.7059628e-02
  9.1965210e-01
 -3.4132361e-01
  8.7646770e-01
  1.4003602e+00
  5.4834401e-03
 -1.3999312e+00
 -2.2810822e+00
  4.2420870e-01
 -1.8600311e+00
  7.7269989e-01
  6.2280017e-01
  3.4765819e-01
 -7.1163100e-01
  1.1110717e+00
  1.9568278e-01
  1.7790108e+00
  1.7828913e+00
 -4.3084094e-01
  4.8083165e-01
  1.6836468e+00
  2.6562297e+00
  2.8154501e-01
 -3.1684145e-02
  6.5149057e-01
  5.6448543e-01
 -5.0355864e-01
 -2.9826498e-01
  7.4827302e-01
  1.8832202e+00
  6.6111934e-01
 -1.3336342e-02
  3.1881365e-01
  8.4068829e-01
  2.6396635e-01
 -1.1720513e+00
  2.1929958e+00
 -9.5178437e-01
 -1.7043837e+00
  4.7897520e+00
 -2.8267819e-01
 -2.9701886e+00
  8.4052939e-04
  3.0692129e+00
  2.1586549e+00
  3.7338039e-01
 -4.5653898e-01
 -1.3416104e+00
 -1.4940234e-01
 -2.9915774e-01
 -2.3905358e+00
  1.9651845e+00
  2.9086282e+00
  2.0920432e+00
  1.0681212e+00
 -2.2910073e+00
 -2.5288895e-01
 -1.8096797e+00
 -1.6628919e+00
 -6.3295859e-01
 -7.8070992e-01
 -1.1524264e-01
 -1.3551652e+00
 -5.6524515e-01
 -7.4708015e-01
  3.6354643e-01
  1.5025479e+00
 -2.1428769e+00
 -1.2323819e+00
  1.4955605e+00
 -5.7044476e-01
  1.3850836e+00
  3.5736689e-01
 -3.6275146e+00
 -4.8103493e-01
 -1.4945211e+00
 -8.2339185e-01
  1.6814798e-02
 -1.4224167e+00
  4.3844461e-01
 -6.4477241e-01
  2.6588666e-01
  1.6109090e+00
  7.3441136e-01
 -3.9561534e+00
 -7.5484860e-01
 -3.7772611e-01
  4.7375879e+00
 -9.3575221e-01
  1.7977290e-02
 -1.5422950e+00
 -3.1917722e+00
 -2.4775822e-02
 -1.6746296e-01
 -8.2453690e-02
  6.5523535e-01
 -1.4363275e+00
  2.6665992e-01
  3.8854592e-02
 -4.4105169e-03
 -7.9958647e-01
  2.3672220e-01
  2.3309924e-03
 -8.5451052e-02
  9.6220168e-04
  6.9190226e-03
  1.4140515e+00
 -4.7916915e-02
  1.8466538e-02
  1.3673490e+00
 -8.1298299e-02
  2.4885074e-03
  9.1222361e-02
 -4.9098052e-02
 -2.8162632e-02
  6.5769553e-02
  2.2110756e-01
  4.7002319e-02
 -4.8746291e-01
 -3.7766913e-01
 -3.0354068e-02
  5.4048371e+00
 -1.4181325e-01
 -1.1769571e-02
 -5.7101779e-02
  1.0260474e-01
  8.9303851e-03
  7.7673018e-01
  1.8594461e-02
 -1.8293254e-02
  1.8411733e+00
  8.5576363e-03
  5.5939548e-02
  1.7707372e-01
  7.9009263e-04
 -3.9483875e-01
 -2.8326366e+00
 -1.5216906e-02
 -5.5395635e-03
  2.4987686e-01
  1.4155228e-01
  4.4464378e+00
  2.9375769e-02
 -1.3374430e+00
 -8.8096523e-01
  3.1354029e-03
 -3.1149811e-03
  1.1337706e-02
  3.2902122e-02
 -5.5298652e-02
  1.4699382e-02
  2.3905108e-02
 -7.0584510e-03
  1.0586967e-02
 -6.6912055e-01
  4.4945842e-01
 -1.9699086e-02
  1.5861796e-01
  3.3719551e-02
 -8.4198982e-02
  2.4903755e+00
  5.5612433e-03
  1.3256417e-02
 -1.1362239e-01
 -1.8996985e-01
 -3.1755489e-01
  3.5033956e-02
 -3.5684374e-03
  1.0345135e+00
  5.2829862e-02
 -3.5311434e-01
  1.1113143e-02
 -1.2379670e-01
  2.8302960e-02
 -5.5935290e-03
 -8.8062987e-02
 -5.8473316e-03
  4.0759612e-02
  1.9391086e-02
 -1.0610231e+00
  1.2042141e-01
 -1.2912046e-02
  1.5084869e-01
 -6.9489205e-01
 -2.1038069e-01
  1.5009638e+00
  9.0296066e-01
 -2.4051553e-01
 -1.4729253e+00
 -1.8418605e+00
  2.3259485e-01
  1.9517014e+00
  1.6006663e+00
  4.6511993e-02
  4.4229719e-01
 -1.3689710e+00
 -1.2805719e+00
 -4.9984121e+00
 -1.1913747e+00
  1.5893245e+00
 -1.7916123e+00
 -9.4733739e-01
  2.4128547e-01
  1.4757117e+00
 -2.7068534e-01
 -1.5098237e+00
 -4.2325635e+00
  3.2875724e-02
  2.0712199e+00
 -9.7510129e-01
  7.3262066e-01
 -1.7922465e-02
 -1.2521697e+00
  5.4193956e-01
 -1.1450417e+00
 -1.4883796e+00
  3.1909150e-01
  1.8487535e+00
 -2.6506717e+00
  2.4379613e+00
 -1.8456748e+00
  1.8483731e+00
 -1.1852555e+00
 -9.8549731e-02
  1.6740263e+00
 -2.2231126e+00
  9.8977000e-01
  1.6442304e+00
  1.0088181e+00
  4.9259290e-01
 -6.6566801e-01
 -6.9471604e-01
  5.2314383e-01
  5.5728250e+00
  1.7806408e+00
 -6.0965276e-01
  7.2207868e-01
 -1.9940207e+00
  3.7430575e+00
 -4.6451039e+00
  2.5658939e+00
 -3.5677624e+00
  1.5043092e+00
  4.2339143e-01
 -7.8740502e-03
  8.8030058e-01
  2.1650052e+00
 -1.1538233e+00
 -2.0219220e-03
  1.2215112e+00
 -2.4985213e+00
  9.8586059e-01
 -2.5990636e+00
  1.1500486e+00
  2.2844972e-01
  5.1379293e-02
 -8.9390820e-01
 -4.1103676e-01
  4.7304863e-01
 -2.1619998e-01
  5.6943998e-02
 -5.2461618e-01
  4.3944721e+00
  1.3826488e-01
 -7.8228980e-01
 -8.1288654e-01
  2.6968048e+00
  4.1057014e+00
  1.2534971e+00
  1.0372019e+00
  2.1952641e-01
  7.0135117e-01
  2.6634355e+00
  1.7828989e-01
 -1.8901434e+00
  1.2165281e+00
  2.2286406e+00
  4.6929135e+00
  3.8299775e-01
  1.0243514e+00
 -1.8011795e+00
  3.7464135e+00
 -1.7795151e+00
  7.8300941e-01
  8.7193859e-01
 -1.3199256e-01
  1.4571404e+00
  1.6074254e-01
  2.4047356e+00
  2.4903944e-01
  4.1484199e-02
  2.9033503e-01
  2.6832396e-01
  2.8159604e+00
 -4.4655061e-01
  2.8128326e-01
  1.1006453e+00
 -4.4475429e-02
 -3.5721958e-01
 -8.4540449e-02
  4.7121730e-02
 -4.5621839e-01
  2.8678877e+00
 -1.4462707e+00
 -4.2600047e-02
  2.8281784e-01
  2.2519340e-01
  1.5264806e-01
  2.2949858e+00
 -1.7951680e+00
  1.6959833e-02
 -6.7544311e-01
 -4.8018670e-01
 -3.0660090e-01
  1.1460914e-01
 -6.0844541e-01
  1.5748656e+00
  2.8711321e+00
 -1.5953667e-01
  6.9145784e-02
  7.6674277e-01
  1.6952710e-02
 -3.9200276e-01
  5.2972972e-02
 -7.1340448e-01
 -3.1429149e-02
  6.9032930e-02
  7.9344407e-02
 -7.8567320e-01
  2.7390232e+00
  1.7907019e-01
 -5.0455098e+00
 -2.0452316e+00
 -1.0659362e-01
 -1.9489095e-02
  2.3672784e-02
 -6.9650072e-03
  2.2190459e+00
  3.1402994e-02
  1.5010663e+00
  3.2664449e+00
  1.1155628e+00
  1.1603812e+00
 -2.0947600e-02
  1.6029896e-02
  1.1474951e-01
  1.2363307e-02
  9.5925014e-04
  1.9975314e-02
 -2.1144978e-03
 -1.7628903e-03
  1.1454492e+00
 -2.0624705e-01
  1.9288410e-03
  3.1561412e-02
 -3.8340043e-02
 -9.7003609e-02
  8.3664054e-01
  6.0687762e-01
 -8.6059344e-01
 -4.4983795e-01
 -2.9103927e-02
  1.7012185e+00
 -6.2947467e-02
 -7.9487503e-02
  9.8338127e-02
 -2.4329381e+00
 -1.1585288e-02
 -2.0044732e-01
 -2.9292844e-02
  1.8465053e-02
  1.6892642e-02
  3.9859619e-03
  4.8425540e-02
 -3.4243342e-02
 -1.8451102e+00
 -5.5229317e-02
  3.7186980e-02
  6.0693515e-03
 -3.8482067e-03
 -7.8316055e-02
  1.1961171e-02
  2.1661947e-02
 -3.7338633e-02
  6.0204356e-03
  9.4174389e-03
 -7.4067786e-02
 -4.6251342e-03
 -4.6383226e-03
  4.4333775e-02
 -2.6268419e-04
  1.2592736e-01
  3.4102544e-03
  5.1970869e-02
 -4.9914908e-02
 -4.8404202e-02
  1.0230658e-02
  4.3046069e-03
 -2.4486734e-03
  8.4404126e-03
 -1.2294980e-03
  9.1994368e-03
  1.9973496e-02
 -5.4752906e-03
  4.7350270e-01
  2.8558013e-03
 -2.4769241e-02
 -3.4103186e-03
  3.2598546e-03
  1.9059500e-03
  1.5680422e-03
  1.3804231e-02
 -2.1142742e-02
 -6.5127104e-03
 -4.5799529e-03
  2.4515487e-02
  1.1081640e-02
  1.8242013e-02
  6.1434670e-03
 -4.2410004e-03
  1.1521630e-02
 -1.1075771e-02
 -2.5826581e-02
  5.9515022e-02
  2.0817742e-02
 -4.2098932e-02
 -7.5999517e-03
  9.9948353e-01
  8.2554615e-01
 -1.0198870e+00
  9.5224065e-01
 -1.5185976e+00
  2.3278563e-01
  2.5656810e+00
 -5.5379659e-01
  3.2203978e-01
 -4.5673394e-01
  4.3519200e-03
 -1.5154366e-01
  5.6380856e-01
 -1.9338598e+00
 -1.8074543e+00
  1.2827834e+00
 -7.1212399e-01
  2.2433581e+00
 -4.4263763e+00
 -1.5396681e+00
 -1.0655886e+00
 -1.3327881e+00
  6.3670760e-01
  1.3586648e-01
  1.8230073e+00
  4.5065773e-01
 -1.5046632e+00
 -6.4163208e-01
  9.3014282e-01
 -1.6095136e-01
 -2.2197447e+00
  2.2059727e+00
 -1.4835609e+00
 -5.5844718e-01
 -5.8254653e-01
  1.0444472e-01
 -2.9268413e+00
  2.4909165e+00
 -2.3910844e+00
  1.7059617e+00
 -1.7564715e+00
 -9.1917545e-01
 -4.3020728e-01
 -2.9205292e-01
  3.7107179e-01
 -3.3758298e-01
  1.2050022e+00
 -2.5471050e-01
 -2.2697082e+00
 -4.5458230e-01
 -3.1973355e+00
 -1.3809564e+00
  1.8857007e+00
 -9.7465777e-01
  8.3760858e-01
 -1.2009582e-02
 -1.4692835e+00
 -1.9397182e+00
 -5.9640509e-01
  3.9563553e+00
 -1.1364456e+00
 -9.7977895e-01
 -8.9363724e-01
  1.4094423e+00
  8.0174720e-01
  1.4768902e+00
 -1.7045739e+00
  1.1612554e-02
  1.9177392e+00
  1.6192918e+00
  2.0595496e+00
 -3.8964140e+00
  1.3351914e+00
 -1.6852313e-01
  2.3140874e+00
  2.1886475e+00
  6.5070800e-03
  3.5611596e+00
  1.6834152e+00
 -3.1447623e-02
  1.2014998e+00
  4.2105904e-01
 -8.1205763e-02
  1.9724328e-02
 -3.3573333e-02
  2.1489617e-01
  2.2966540e+00
 -1.9266437e+00
 -1.2558287e+00
 -1.6029699e-02
  6.8247959e-02
  1.2679496e-01
 -6.8617336e-02
  1.1628865e-01
  1.2089204e-04
  1.0471637e-01
 -2.1404179e-02
 -6.8544406e-01
  6.6220105e-01
 -1.8129370e-01
 -2.2797999e+00
 -2.3414252e+00
 -5.0118160e-02
  2.9291704e+00
  1.1754383e+00
  2.8370533e-02
 -2.7298236e+00
  3.4952874e+00
 -2.7173153e-01
  8.8821483e-01
  1.2892647e-01
  9.4457698e-01
 -1.0637468e-02
  6.4727031e-03
  1.7592396e+00
 -1.5584478e-02
  2.6493857e-02
  1.1114761e+00
  8.0423638e-02
  1.3433991e-01
 -1.5412312e+00
 -1.3017747e-02
  1.1960140e+00
 -7.7094781e-01
 -2.3856301e+00
 -5.9406620e-01
  4.2615757e+00
  2.3570906e-01
  4.4318306e-01
 -8.9007491e-01
 -3.5560593e-01
  1.9936538e+00
 -2.7592114e-01
  1.2110021e+00
  3.6876313e-03
  1.8085866e-01
 -6.7899637e-02
  6.5556452e-02
 -4.0276188e-02
 -5.7459873e-01
 -7.7657753e-01
  2.3533326e-02
  9.3883151e-01
 -1.7103838e-02
 -3.3335844e-01
  7.3505938e-01
  7.3588467e-01
  4.2037961e-01
  1.0391781e+00
  1.4073607e+00
 -1.9860016e+00
 -8.1958401e-01
 -5.6286979e-01
  1.0099039e-01
  4.6781257e-01
 -5.7977551e-01
 -5.2927833e-02
 -1.8476074e+00
 -3.0151134e+00
 -2.6131580e+00
  2.2844539e+00
  1.5740821e+00
  1.7835748e+00
 -2.0683680e+00
 -3.7831469e+00
  9.4953766e-03
 -3.1510264e-01
  2.0496570e-01
  2.4963173e-01
  5.9478426e-01
  1.0187488e+00
  1.6039081e+00
 -8.4348941e-01
  5.8508790e-01
 -2.0546958e-02
 -3.2741567e-01
 -1.1700253e+00
 -7.7250600e-01
 -1.9455586e-01
 -1.7698556e+00
  7.8826457e-01
  1.0848889e-02
 -2.8260371e-01
 -2.3269055e+00
 -3.4735770e+00
 -9.7086281e-03
  1.1193372e-01
  2.0771153e+00
 -7.0640457e-01
  3.5549831e-01
  6.7410338e-01
 -4.5577604e-03
 -2.3375657e+00
 -1.2067395e-01
 -2.3545342e-02
  8.1497020e-01
  2.0732450e+00
 -2.3280535e+00
 -1.2940729e+00
 -5.9366810e-01
  4.0163002e+00
 -2.1459836e-01
  1.2811730e+00
 -4.2118096e+00
  1.8481172e+00
  2.5945678e+00
 -2.7418759e-02
  2.6447006e-02
  3.2275224e+00
  2.1946635e-02
  7.5513744e-01
 -3.5592578e-02
 -2.3523573e-02
 -4.8668694e-01
  3.8836397e-02
  3.2757722e-02
  1.2231524e+00
  2.3959816e+00
 -3.4954876e-01
 -6.7806321e-01
 -1.6108653e-01
 -1.1623436e+00
  1.9898202e+00
 -8.7333608e-01
  8.2561255e-01
 -7.2569293e-01
  4.9808878e-01
  1.1446731e-01
 -1.1605201e+00
  2.5834754e-01
  6.4593352e-02
 -5.7853996e-03
  2.2307613e-01
  1.7898073e+00
 -1.1195049e+00
 -4.7670163e-02
  1.4889006e-02
  1.1175830e-01
  2.8238337e+00
 -1.1003650e+00
  1.0140789e+00
  1.3016238e-03
  2.9329076e+00
  6.8279284e-01
  1.7245822e+00
  1.2367713e+00
 -2.0499118e-02
 -3.0967300e-03
 -3.7275443e-03
 -1.1441263e-03
 -1.5853560e-02
  1.2636910e-03
 -4.9045263e-03
 -1.9613665e-02
  6.7633195e-03
  1.2562084e-02
  1.7006567e-02
  6.7233853e-03
  8.7371077e-03
  2.9569834e-02
  1.8982207e-02
  3.1877209e-02
  1.7504733e-02
 -5.0214548e-02
  1.3745736e-02
 -6.6113725e-02
  1.1943463e-02
 -3.0012967e-02
 -8.5298186e-03
 -1.4823146e-02
 -6.6472599e-03
 -2.0235004e-02
 -2.6729815e-03
 -1.2935843e-02
 -2.8043399e-02
  2.8706200e-02
  1.5444849e-02
  1.2641692e-03
  5.2575715e-02
  6.7482800e-03
 -7.0114397e-03
  1.9843090e-02
 -1.5423292e-02
  2.0578342e-02
 -9.1373995e-03
  4.2185164e-03
 -5.8164140e-03
  2.8642425e-02
  6.1922194e-04
 -3.3561509e-02
 -7.9649553e-02
 -2.2175115e-02
 -2.0034613e-02
 -3.6655799e-02
 -1.3025296e+00
 -2.6911229e-01
 -1.1985040e+00
 -3.4384496e+00
  2.3481959e-01
  5.3389180e-01
 -1.5952610e+00
  5.4290408e-01
 -1.1696585e+00
  1.3559214e-02
  5.0243306e+00
 -8.9186382e-01
 -2.3974210e-01
  6.5982737e-02
 -8.2448471e-01
 -2.8220439e-01
 -3.0614910e-01
 -3.0069501e+00
  2.0972182e-01
  1.3533870e+00
  6.4052738e-02
  5.4721147e-02
  1.8951538e-01
  1.6455779e+00
 -7.9467165e-01
 -4.6316680e-01
 -1.9818537e+00
 -4.2149937e-03
 -3.8197284e+00
 -1.3824996e-01
 -1.5159959e+00
 -2.2622810e-01
 -9.7855812e-01
  3.9364380e-01
  1.1047570e+00
  1.6817828e-01
 -1.5807030e+00
 -1.0230085e+00
  1.1513120e+00
 -7.0614904e-01
 -1.7233720e+00
  1.0042666e+00
 -2.4083185e-01
 -2.1842323e-01
  3.7852861e-02
 -7.4201897e-03
 -5.6086642e-01
 -1.1222493e-02
 -3.2510037e+00
  4.1492704e-02
  1.5776967e+00
 -6.9787698e-03
 -3.1569356e-01
 -2.9509583e-01
  1.2778904e-03
 -1.9761685e+00
 -2.7000301e-02
  1.7063966e-01
 -5.0683445e-01
 -7.6977544e-02
 -2.4413016e-01
  2.3291187e-01
 -6.0435660e-02
  9.8794729e-01
 -7.6728833e-01
 -5.0273365e-01
  8.4629005e-01
 -8.1696540e-01
 -4.7994915e-02
 -9.0300703e-01
 -2.9591402e-02
  1.6022809e-01
 -7.7385229e-01
 -8.1184648e-02
  1.9750556e-02
 -1.4142557e+00
  8.6622976e-02
  4.0890986e-01
  3.4247595e-01
  9.0324831e-01
 -2.1282288e-01
  3.9640599e-01
 -3.1472293e-01
  4.1025710e-01
  1.0029734e-01
  1.1064166e-02
  5.7305461e-03
  1.1232900e-02
  1.7118050e-02
  1.7704608e-02
  1.0848369e-02
  2.2424031e-02
  5.5760969e-03
  5.6963253e-01
 -9.8530404e-02
  2.9139617e-02
  7.7307202e-02
 -2.5958645e-01
  9.9972427e-02
 -2.1628954e-01
 -9.1726077e-01
  8.5159361e-01
 -1.1811024e+00
 -3.9099209e-02
  1.9369979e+00
  4.0645003e-01
 -1.4314882e+00
  7.9386467e-01
 -9.8685950e-01
  2.8676515e+00
 -1.9020587e+00
 -2.2094984e+00
  3.9333110e+00
 -1.4110398e-02
 -1.7983180e-01
 -5.2220243e-01
 -1.7989116e-02
  1.2765021e+00
 -1.8962300e-01
 -1.0154248e+00
 -9.1336316e-01
 -1.8798932e+00
  5.5481702e-01
 -9.7296280e-01
  3.1705353e-02
  5.1986587e-01
 -1.0992063e+00
  5.9086434e-03
 -1.0015068e+00
  3.5073157e-02
  1.7739417e-01
 -1.0907497e+00
 -8.2502641e-02
  2.5548308e+00
  1.7408444e-02
  2.5408149e+00
 -3.8677683e+00
  2.7571101e+00
 -1.6219826e-01
 -8.1857169e-01
 -2.0218494e+00
 -2.6747186e-02
  1.4526825e-01
 -1.6532700e+00
  1.0854729e+00
 -1.0681400e+00
 -1.0432810e+00
 -5.8276160e-03
  6.6289660e-03
 -1.7341826e+00
  2.3913996e-03
 -6.0203739e-02
  4.5497563e-02
  6.5087345e-03
  2.2024173e-02
 -2.9104771e-03
  1.3944356e-02
  4.7975462e-03
  5.4536676e-03
 -9.3683330e-03
 -2.9842469e-03
 -3.5003141e-02
 -1.8353090e-02
  3.2519225e-02
  4.3119308e-02
  7.1927882e-03
 -5.4531179e-02
 -1.9952396e-02
  3.1426962e-02
  8.0728289e-03
 -7.4970055e-01
 -7.0833880e-03
  2.5734568e-03
 -1.2125999e-03
 -1.0945304e-02
 -9.2143565e-01
 -6.8250626e-02
 -1.9985640e-02
  6.8358667e-03
 -1.0013989e-02
 -1.4442781e-02
  4.7715986e-03
  3.7623230e-02
 -9.7723193e-03
 -8.7702312e-02
  1.2102937e-02
  3.4001487e-01
  4.6375408e-03
  7.3828973e-02
 -2.3458786e-02
  3.6358524e-02
  4.7530282e-02
 -6.6277787e-02
 -4.5955256e-03
  2.0493895e-02
  5.2570072e-03
 -1.1187713e+00
 -1.1946777e+00
 -6.1530590e-01
 -1.5134981e+00
 -3.5498247e+00
 -2.5352550e-01
  7.7463824e-01
 -1.0311112e+00
 -4.9214249e+00
 -2.9460745e+00
 -3.0150325e+00
  7.8703940e-02
  7.1894760e+00
 -1.3983643e+00
  2.3525822e+00
 -5.7290506e-01
 -2.0419943e+00
 -1.1597148e-01
  1.1177447e-01
 -6.1108217e-02
 -9.4995578e-04
 -3.3301239e+00
 -5.1131654e-01
 -8.8192597e-02
 -1.4574874e-02
  8.6670458e-01
 -1.4486885e-01
  1.0844605e+00
 -1.4816537e+00
  9.2090303e-01
  1.0494236e-01
  1.0779592e+00
 -7.2342958e-03
 -3.0332139e+00
  1.1286174e+00
  1.8637050e+00
  1.5758501e-03
 -1.8005744e+00
 -9.7121829e-01
 -3.8614335e+00
  2.1767888e+00
  5.2561951e-01
 -1.0241963e+00
 -3.1139910e-02
 -2.3351538e+00
 -1.3096608e-02
  1.1649534e+00
 -1.1740520e+00
  7.2211939e-01
 -2.3950298e+00
 -1.5269991e+00
  8.4696108e-01
  1.2683289e-02
 -1.2409904e+00
 -1.2616353e-01
 -3.4231913e-01
  6.9080748e-02
 -1.1473770e-01
 -8.8698101e-01
  2.3301229e-01
 -2.4063328e-01
 -2.2923593e-01
 -1.1424267e+00
 -1.3146031e+00
 -3.4342501e-01
 -1.6152542e+00
 -2.6656945e+00
 -2.1520260e-01
  1.5580817e+00
 -1.4304765e+00
 -1.4498017e+00
  3.9453217e-01
  8.6217433e-01
  1.1367679e+00
 -5.9911919e-01
  4.0647304e-01
  2.5803667e-01
 -4.3196866e-01
 -5.3153154e-02
 -9.5388615e-01
 -1.0742030e+00
  3.9554794e+00
 -8.8528782e-01
  3.8731914e-02
 -1.1722280e+00
 -1.0262667e+00
  6.0005033e-01
  2.9339558e-01
 -5.6077284e-03
 -2.2513539e-01
  2.7707240e-01
 -4.2996888e+00
  1.3082237e+00
 -5.9753877e-01
 -1.1465058e+00
 -9.3299079e-01
 -1.4711542e+00
 -4.0085804e-01
  2.7902417e+00
  1.7778455e-01
 -2.2070408e-01
 -2.0461239e-01
  5.3582329e-01
 -8.0010968e-01
 -2.9631848e+00
 -1.4007055e+00
 -3.3107668e-02
  2.4218810e-01
 -4.1254130e-01
  2.6063190e+00
 -6.0156697e-01
  4.4586897e-01
  2.3459718e+00
  4.1527366e-03
  3.5310557e-01
 -1.4265300e+00
 -1.2286705e+00
  5.1897492e+00
 -1.8210281e-01
  3.4967151e+00
 -7.5855428e-01
 -2.0279007e+00
  1.1035724e+00
 -6.0068882e-01
  3.4890381e-01
  5.1375437e-01
  1.0330950e+00
  1.1625366e-01
 -1.1410772e+00
 -8.5396218e-01
 -1.4005868e+00
 -3.5075812e+00
  1.2360033e+00
  1.6935323e+00
 -3.7197657e+00
  1.3459873e-01
 -4.4368362e+00
  8.1364584e-01
 -2.4363771e-01
 -2.1034038e+00
 -4.5645759e-01
 -3.4834130e+00
  1.9149275e-01
 -7.4268782e-01
  2.5879538e+00
 -2.4882938e-01
 -2.9702168e+00
 -3.1716177e+00
  1.4726210e+00
  3.2805532e-04
  7.2084898e-01
 -1.0908993e+00
 -8.1719780e-01
  2.7235668e+00
  2.5272255e+00
  1.2536217e+00
 -3.4236830e-01
  1.2152784e+00
  5.7653391e-01
 -7.9789090e-01
 -6.4450026e-01
 -2.4518408e-01
 -2.8180065e+00
 -7.1936935e-01
  1.4201040e+00
 -1.3632751e+00
 -2.7226450e+00
 -3.6370683e-01
 -2.6724944e+00
  1.6982332e+00
  1.9042914e+00
 -3.5269517e-01
  9.6979624e-01
  3.9587063e-01
 -3.2366016e+00
  1.7640947e+00
  7.1149558e-01
  1.1308894e+00
 -9.5466375e-03
 -1.3730921e+00
 -3.6613162e+00
 -1.8618737e+00
  1.0440660e+00
 -8.6031663e-01
  7.4234456e-01
 -1.3749006e+00
 -2.7188915e-01
 -1.4418093e+00
 -1.9649043e+00
  2.0435331e+00
 -2.8473249e-01
  7.3260874e-02
  4.5729659e-02
  3.6343029e+00
 -4.5742963e-02
 -2.2839487e+00
  5.3207930e-03
 -3.0496120e-03
  7.0740599e-03
  2.5450449e-02
 -1.4861542e-02
 -9.4319293e-03
 -2.2973334e-03
 -1.6380075e-02
 -8.0693448e-03
 -8.7621696e-03
 -1.1552282e-02
 -1.1553878e+00
  9.8520610e-03
 -1.1465189e-02
 -6.7976704e-03
  1.1111192e-01
 -2.2344873e-03
  1.2989894e-02
  1.4533123e-02
  3.4505578e-03
  3.2891980e-03
 -2.1424050e-02
 -8.5135885e-02
 -1.7842308e-02
 -9.9267801e-03
  2.8526433e-02
 -6.4547779e-03
 -1.2956886e-03
  2.6627643e-02
  1.3674941e-02
  7.4287523e-03
 -4.2053550e-03
 -1.3657173e-03
  5.5148173e-03
  2.7387502e-02
 -2.1958655e-02
  9.8195309e-03
  1.7697023e-02
 -1.5162978e-02
 -1.0522744e-02
 -3.3040689e-03
  4.8533741e-01
  3.8030889e-02
 -1.1934662e-02
 -3.4748424e-02
 -5.0666276e-02
  8.0161870e-02
 -1.6186513e-02
 -9.1880057e-03
 -6.5088159e-01
 -1.6438637e-02
  2.8969020e-01
  6.9106795e-02
  1.4959279e-02
 -7.0490194e-03
  1.5997037e-01
  1.3920968e+00
  7.5087833e-01
  3.6278106e-02
 -1.0547185e+00
 -7.6418452e-02
  3.0099356e-01
  3.8631573e-02
 -9.7826540e-02
  3.0070882e-02
  4.8595667e-03
 -1.4983742e-02
  7.9653403e-03
 -4.7872462e-03
  5.7831794e-02
  1.5310464e-02
 -1.0086785e-01
 -2.1071045e-02
  3.8048718e+00
 -3.7116215e-03
  3.8980074e-02
  8.3510941e-03
  4.7926035e-02
 -4.4646019e-01
 -1.7415199e-02
 -4.0700333e-03
 -1.9901695e-02
  7.6262724e-01
  1.5634231e-02
 -6.8836915e-03
  5.9176672e-02
 -3.2405686e+00
  1.8588598e-01
  4.9164566e-01
  4.7773758e-01
 -3.6613930e-02
  1.4926498e-02
  1.7627690e-02
  1.0240279e-01
  3.8864184e-02
 -1.9822477e+00
  7.0494592e-02
 -1.6803652e-02
  4.6503156e-01
  2.2853353e+00
 -1.0893513e+00
  5.1920969e-02
 -7.6153016e-01
 -4.0853089e-01
  4.8315766e-01
 -2.3391961e-01
  6.4487192e-03
 -1.2762750e+00
  8.4099346e-01
  7.0087916e-01
  1.3686720e-01
 -8.8507667e-02
  1.0616437e+00
  5.6979336e-02
  7.0165682e-01
 -2.2105455e+00
 -6.7736667e-01
  1.4360867e-01
  1.1961401e+00
 -5.8080971e-01
  9.0555683e-02
  1.2966679e+00
  8.8456088e-01
 -3.7887612e-01
  5.8743852e-01
 -6.9137752e-01
 -7.6388407e-01
  8.7459964e-01
  3.8666718e-02
 -6.7456476e-03
  3.6541015e-01
  9.5141130e-03
 -1.5822833e+00
 -3.9209616e-01
 -3.3513123e-01
  1.7795945e+00
  1.1495803e-01
 -8.5521024e-01
 -3.7546024e-01
 -1.6465956e-01
 -1.7110164e-01
 -4.1725284e-01
 -8.9581303e-02
 -9.3786806e-02
  9.9968553e-01
  2.5212207e+00
 -1.2885269e+00
 -6.0927697e-02
 -1.5202416e+00
 -3.9038179e+00
  1.9902580e+00
 -3.4771585e+00
 -1.9931780e+00
 -3.1736610e+00
  6.6348404e-01
  2.1848648e+00
 -5.9673095e-01
 -1.0113696e-01
 -6.0544634e-01
 -1.0703242e+00
  2.5631320e-02
  3.2274002e-01
  1.0107388e-01
  2.3202240e-02
  1.3271401e-02
 -1.2135836e-03
  6.3273126e-01
  1.0499772e-01
 -2.6106730e-01
  7.5502497e-01
  1.4571032e-01
  1.8898257e+00
  1.1738387e+00
 -1.3450292e-01
  5.7932752e-01
 -5.3603739e-02
  9.9500179e-01
 -4.2943573e-01
  8.0184686e-01
 -2.4313422e-01
 -4.5737574e-01
  1.2883488e+00
 -3.4180674e-01
  1.4152311e-01
  3.7568262e+00
 -4.0634368e-03
 -1.9516417e-01
  7.3400021e-01
 -1.3593607e+00
  4.1628897e-01
  2.4678022e-02
 -1.4342153e-02
  2.9667770e-02
  4.9037006e-01
  1.9886434e+00
  1.3393931e+00
 -1.8779097e-01
  2.3238871e-01
  2.5317170e-02
 -3.4401283e-01
 -3.0007058e-01
 -7.5646627e-01
 -6.9890493e-01
 -1.1435541e+00
  4.7203321e-02
 -1.6759430e+00
  4.5040396e-01
  8.0842900e-01
  3.5239914e-01
 -8.1302315e-01
 -9.6240991e-01
 -1.7309006e+00
 -2.6379726e-03
  5.2328730e-01
 -1.6352017e+00
 -2.1514308e+00
 -6.4484432e-02
 -1.8991926e-01
 -5.0077343e-01
  8.4077105e-02
  1.3179312e-02
  3.5296181e-01
  8.5830256e-02
 -1.5298047e+00
  1.5829442e-01
 -5.6958967e-01
  6.5807519e-03
  6.2566948e-01
  5.0944972e-01
  9.1893995e-01
  1.5293102e-01
 -5.9103635e-03
 -2.0638843e+00
 -4.5984063e-01
 -6.9903225e-02
 -4.4782090e-01
  3.7759358e-01
  1.5884622e+00
 -6.0649991e-01
 -1.9099887e-02
 -1.1737458e-01
 -8.4238693e-02
  2.5153565e+00
 -2.0912971e+00
 -8.1103273e-02
 -1.2067688e+00
 -2.8768992e+00
 -4.2544785e+00
 -2.4420712e+00
  2.9474125e+00
 -3.2490022e-02
 -1.9360490e+00
 -2.6575431e-01
  1.9807547e-02
  3.9420947e-03
 -8.6502801e-04
 -3.4940296e-01
 -9.1333024e-02
 -1.4966240e+00
  3.3594038e-02
 -2.8261063e-03
 -1.0858917e+00
  1.1271124e+00
 -1.4638627e-02
  2.0579539e-02
 -2.8876919e-02
  3.1364853e-03
 -1.3450946e+00
 -4.7487026e-01
  1.0461818e+00
 -6.2538840e-02
  2.8351836e-03
  2.9312575e-02
 -2.4452314e-02
  4.4244921e-01
 -5.9008095e-02
  3.4632456e+00
 -2.9337635e-02
 -1.0836030e-01
  8.4103979e-03
  1.1780912e-02
 -8.1953950e-02
 -7.8294039e-01
  3.7208363e-02
 -1.4369264e-01
 -1.8420858e+00
  1.8323919e-01
  6.1410684e-03
  2.6891324e-01
 -6.3584396e-04
  6.3593715e-02
 -6.9734842e-01
  2.2323083e-03
 -7.3839104e-01
 -2.0216045e-01
  1.9531584e-01
 -9.4642997e-02
  1.3020594e+00
  1.1182325e-01
  7.8346888e-03
 -3.2930896e-01
  4.5143875e-01
 -1.0160160e+00
 -5.6995999e-02
  1.1848329e+00
  9.8518085e-01
  6.0855758e-01
 -1.3450849e+00
 -3.4043786e-01
  2.5332591e-01
  8.8022155e-01
  1.3422466e-02
  1.2726972e+00
  2.7081101e+00
  1.5818273e+00
 -1.2865724e-01
 -1.0569779e+00
 -8.6113173e-01
  2.1371911e-01
 -8.6865616e-01
 -1.7483283e+00
  5.7733345e-01
 -7.4293852e-01
  6.8237257e-01
  3.1992355e-01
 -5.4378133e-02
 -1.3324940e+00
 -8.0133575e-01
 -2.3053780e+00
  5.7352543e-02
 -6.4442758e-03
  1.5418056e+00
  1.7489179e+00
 -8.8900542e-01
 -6.3926083e-01
 -7.0966649e-01
 -1.4377884e+00
 -1.9143663e-01
  4.3329999e-02
  1.8834022e+00
 -3.0135646e-02
  1.0767696e-02
 -6.2826711e-01
 -1.4126164e+00
  5.5720627e-01
 -2.1259110e+00
  1.0663849e+00
 -2.1163909e+00
  7.8616416e-01
 -1.4203663e+00
 -2.2030801e-01
  7.1069628e-02
 -2.4256840e-01
  1.3243935e+00
 -1.3323144e+00
  1.3885070e-01
 -1.3214438e+00
 -9.9941164e-01
 -8.5607305e-02
 -1.0781010e-01
  3.3262357e-02
  7.9424208e-01
  1.8659558e+00
  1.3224065e+00
  2.0390643e-01
  1.2730067e+00
  1.0822254e+00
 -1.1109669e+00
 -1.5183313e+00
  2.8907481e-01
 -2.5490770e-01
  3.7885562e-01
  2.3988696e-02
  1.5049583e+00
  1.6730626e+00
  3.7818242e-02
  1.4415634e-02
  1.9385822e-01
  7.7702028e-01
  6.8221111e-03
  4.2213610e-01
  1.7037481e+00
  1.2520740e+00
 -1.0300909e+00
  7.3252928e-01
  8.6776894e-03
  3.2171053e-01
  1.7763634e-01
 -7.3422831e-01
  2.0507669e-01
  4.5986068e-03
  1.6348355e+00
 -3.3401799e+00
 -1.3389260e+00
 -1.7963766e+00
 -2.4178495e+00
  4.9793181e+00
 -3.1078162e-02
  6.3846576e-01
 -2.8615656e+00
  6.2065542e-01
 -7.4588940e-02
  6.2060374e-01
  9.1475052e-01
 -2.8836586e+00
 -1.9091438e+00
 -8.5271418e-01
 -1.0904281e+00
  2.0805242e+00
 -2.4522846e+00
 -5.8853668e-01
 -2.6450293e+00
  5.3437334e-01
 -1.4981526e+00
  1.3132249e+00
  2.2429702e+00
 -3.3859559e-03
  9.3947744e-01
  2.5485182e+00
  8.7827463e-03
 -7.1454501e-01
 -6.0697007e-01
  6.5343133e-03
  1.6992769e+00
  2.9179852e+00
 -2.6930864e+00
  8.6852936e-03
 -8.2633175e-02
  5.1603638e-02
 -1.2941107e+00
 -1.9928465e+00
 -9.0895867e-01
  6.2632084e-01
 -2.6193118e+00
 -1.1857112e-02
 -4.3880141e-01
 -5.8836871e-01
  1.8704817e-02
  8.1520927e-01
  1.3052446e-01
 -1.0990399e+00
 -4.3292239e-01
 -4.7218412e-01
  8.6695981e-01
  3.6155589e-02
  6.5152788e-01
  7.6783639e-03
 -2.0241372e-02
  2.5482860e-01
  3.5234007e-01
  4.8034897e-01
 -7.0869374e-01
  4.2213700e-03
 -5.4855287e-01
 -3.1218034e-01
 -3.3737432e-02
  8.8240907e-02
 -1.6277461e-01
 -1.3966042e-01
 -2.8716417e-02
 -2.2782016e+00
  8.0790061e-01
 -5.6329291e-02
 -5.2593887e-01
  2.7088453e-03
 -2.1800444e-01
  7.7608630e-02
  5.1909988e-03
 -1.9267306e-01
 -1.8579385e+00
  4.8600963e-01
 -7.7848144e-02
  9.8330188e-01
 -6.5286875e-02
 -1.9866873e-02
 -4.7133844e-02
  4.6676373e-01
 -1.1490963e-03
 -1.4098451e+00
  2.0079561e-02
  2.0305587e-03
  2.0424657e-02
  2.9107599e-02
  2.3810650e-01
 -4.3697301e-02
  8.8147998e-01
 -1.6881265e-02
 -9.2856747e-01
  1.2759912e-01
  2.7481258e-01
 -1.5919417e+00
 -1.4369711e+00
  1.6843997e+00
 -4.7189000e-01
  5.3125708e-03
  1.3493929e+00
 -1.9201916e+00
 -2.5815886e-02
 -1.7603160e-01
  9.1643222e-02
  2.3207664e+00
 -5.6484932e-01
  4.7183096e-02
 -8.9672126e-02
  2.3750596e-01
  1.1000300e-02
 -6.8075798e-02
 -2.1911659e+00
 -7.0875905e-02
 -2.1004510e+00
 -2.1850791e-02
  5.0533902e-02
  1.0355474e+00
  1.8038696e+00
  6.5568410e-02
  7.5008053e-01
 -1.6395082e+00
  4.6463993e-01
  6.3815808e+00
 -6.0242694e-03
 -4.0486897e-03
  6.0958070e-01
  2.5102565e-01
  6.6192552e-02
 -6.4639807e-02
  7.8737414e-01
 -1.1773231e-02
 -4.0166381e-01
 -4.6122023e-01
 -3.4607041e-01
 -4.5243103e-02
 -8.1699918e-04
 -5.4563594e-01
 -3.8094911e-01
 -5.0844960e-02
  7.9426795e-02
 -9.5805967e-01
 -7.5082105e-01
 -6.1154526e-02
  2.3029308e-01
 -5.8494842e-01
  1.6117176e-01
 -2.5342488e+00
  3.7771437e-01
 -1.1011174e+00
  3.7105341e-02
 -8.7854907e-02
  3.2290039e+00
  1.6368848e+00
 -8.3668071e-01
  7.2363963e+00
 -2.2213373e+00
 -6.5951836e-01
 -1.8330184e-01
 -3.5701025e-01
  4.3691698e-01
 -3.3848076e+00
 -3.4293469e-02
 -1.6044948e-01
 -3.6287080e-02
 -1.9151241e-02
 -1.1331577e+00
 -4.5392573e-02
 -6.8035257e-01
 -8.0477947e-01
 -4.3325152e-02
 -1.6394131e+00
 -1.4799272e+00
 -2.8031974e+00
 -4.4704148e-01
 -1.2399617e+00
 -3.6632068e-02
  1.7212578e+00
 -1.7119590e+00
 -8.4643755e-03
 -2.0142221e+00
  8.2235837e-01
 -1.0532684e+00
  4.1766971e-02
 -7.6140672e-02
  3.9252520e-01
  1.7505649e+00
 -1.3177709e-01
 -2.1502917e+00
 -1.5487548e+00
 -2.4149420e+00
 -1.1821568e+00
 -1.4835668e-01
 -3.4515088e+00
  5.9079951e-01
  3.4087987e+00
 -2.6549008e+00
  5.4115783e-02
 -8.7136561e-01
  4.2545538e+00
 -9.3082619e-01
  3.4637489e+00
 -2.7150163e-01
  2.2699410e-02
  2.9255334e-01
 -8.3129108e-02
 -1.9549184e-02
  6.4532012e-02
 -4.0837243e-01
  9.4473457e-01
 -8.5734069e-01
  2.2467221e-01
 -2.3734001e-02
  1.0867281e-01
 -2.2247970e-01
 -3.6258882e-01
 -1.8597797e-02
 -8.2013302e-02
  1.5923961e+00
 -3.2887244e-01
  3.2596551e-02
  9.9551007e-03
 -9.2705838e-02
 -2.9762287e+00
  3.7030880e-03
  2.6218492e-01
 -4.5397285e-01
  7.3104310e-01
 -1.5714306e+00
  1.1406408e-01
 -5.7558113e-01
  2.7193516e-02
  2.7042323e-01
  4.8404720e-02
 -2.2634898e-01
 -7.8773767e-01
 -1.5872192e-02
  7.1822993e-02
  4.7228184e-02
 -1.7045674e+00
  1.5585973e+00
  6.4123936e-02
 -2.6110527e-01
 -3.4436629e+00
  5.0538020e+00
  1.9793477e-02
 -1.8348079e-02
  6.5420461e-01
  2.6211934e+00
  2.1358461e+00
 -1.2217796e+00
 -1.6030081e-02
 -4.0923734e+00
 -4.2775369e+00
  6.0143840e-01
 -2.7516590e-02
 -2.1545086e+00
  3.7702364e-03
  5.7847482e-01
  4.0557891e-01
 -1.5821549e-01
 -7.1396694e-02
 -6.8308294e-01
 -1.1667791e-01
 -9.5208532e-01
  1.0590415e-01
 -1.3931512e+00
 -2.4671653e-01
  4.3665660e-03
  3.4617362e+00
  1.4360014e-01
 -1.8153648e+00
 -3.9166358e+00
 -1.3446366e+00
  7.5168155e-02
 -1.8949902e+00
 -4.2220365e-02
 -6.4205140e-02
  3.5395460e+00
 -5.0660580e-01
  1.1432517e+00
 -8.4878869e-02
 -1.6765755e+00
 -1.0508364e+00
  7.7666444e-01
 -1.1888673e-01
  1.1800617e+00
 -1.4017093e-02
  2.3951757e+00
  7.6299831e-02
 -1.9420439e+00
  1.7312169e-01
 -6.8677151e-01
  7.8331262e-01
  1.1401556e+00
 -1.9394500e+00
 -8.0228245e-01
  1.9842544e+00
  9.3943810e-01
  9.0525344e-02
  2.7393067e+00
 -4.2107394e-01
 -1.2286667e+00
  3.7039632e-01
  1.5427703e-02
 -6.2409949e-01
 -1.2214543e-01
  5.9820980e-01
  5.5950705e-02
 -1.5424862e-02
  2.5891993e+00
  1.6955862e+00
 -3.6354697e+00
  3.0905004e+00
 -1.9262487e-01
 -1.5336543e-01
  2.3008396e-01
 -9.6273348e-02
 -1.0312634e+00
  2.6996753e-01
 -3.1551963e-01
  1.4350561e+00
 -1.1251600e+00
  3.9648250e-02
  3.7729251e-01
 -1.8165018e-02
 -3.7527138e-01
  4.7575250e-01
 -8.9609009e-01
  3.5455215e-01
 -6.2296999e-01
  6.9800407e-01
 -2.7032062e-01
 -1.9918062e-02
  1.4900671e+00
  1.4162427e+00
  1.7390571e+00
 -4.3244243e+00
  1.2139536e-01
 -4.4694014e-02
  8.7650609e-01
  1.0458962e+00
 -1.5173301e+00
  2.8495307e+00
  7.2310884e-03
  8.7484485e-01
  1.2400409e-02
  2.8010342e+00
 -1.9883926e+00
  8.2561791e-01
 -3.2569745e-01
  1.9674666e+00
 -1.4648999e+00
 -7.4756616e-03
  2.4796193e-02
  6.2584472e+00
  1.8312582e-01
  2.5011477e+00
  5.0024055e-02
  7.8360891e-01
  5.2382040e-01
  7.6912768e-02
  7.7316660e-01
 -5.7273448e-01
  6.5878399e-02
  1.7604914e-02
 -9.4041812e-01
 -7.5260878e-02
  8.9979798e-01
  2.9356030e-01
  7.4112779e-03
  9.8908834e-02
 -1.3180937e-02
  1.0973431e+00
 -1.2390609e+00
 -1.1206625e+00
  1.8430427e-02
 -7.5565094e-01
 -1.5664129e+00
 -2.8856599e-01
 -1.0863894e-02
 -6.0743475e-01
 -2.0676615e+00
 -1.6813058e+00
 -8.1433006e-02
 -6.5158911e-02
 -3.5537702e-01
  6.8575037e-01
  5.7081276e-01
 -3.1392933e-03
  5.0912744e-01
 -3.3990343e+00
 -2.1795239e+00
  1.9402175e-01
  1.0658664e-01
 -5.9456623e-01
 -1.1740292e+00
  1.4812328e-02
 -1.9554738e+00
  1.3588440e+00
  2.3603368e+00
  2.3419559e-01
 -2.2188458e+00
  1.2647147e-01
 -3.8592296e+00
  8.5303867e-01
 -1.7624141e+00
  9.7897090e-03
 -9.2820400e-01
  1.0718891e-01
  2.0892130e-01
  1.2606100e+00
 -1.9353415e-01
  3.6015075e-02
 -3.2141584e-01
 -1.9456972e-01
  1.4939572e+00
 -6.3048553e-01
  1.0178187e+00
 -1.1572366e+00
  3.4875745e-01
 -2.3744361e+00
  6.9779086e-01
  7.1833506e-03
  1.8786056e+00
 -1.2074462e-01
 -2.3634169e-01
  7.6129842e-01
  2.7542477e+00
  1.3326378e+00
  1.0907429e+00
 -5.3439647e-01
 -7.7859700e-01
  1.3611601e-02
  2.3070793e+00
  8.0429518e-01
  7.6096678e-01
 -1.9470099e+00
 -1.8357190e+00
  2.8632755e+00
  6.6214257e-01
 -2.7074387e+00
  7.1817362e-01
 -1.4580379e-01
 -2.6206890e-01
 -6.9887364e-01
  4.3707064e-01
 -2.5479507e-02
  1.1392564e-01
  1.2008042e+00
  6.2011307e-01
 -8.5482085e-03
  4.0601976e-03
 -5.7715499e-01
  1.4853644e-01
  9.6300608e-03
 -1.2184520e+00
  8.9891709e-04
  2.3973634e-02
 -3.7257988e-02
  7.2530001e-01
  4.4880729e-02
 -9.2863351e-01
 -1.6727635e+00
  6.4712338e+00
 -7.8153193e-02
  1.8109491e+00
 -2.5816032e-01
  1.3254286e+00
  1.9810954e-02
  1.7417276e-02
 -3.1126657e-01
  4.8770584e-02
  5.6766087e-01
  2.5916643e-02
  2.4538975e+00
  1.9160245e-01
  3.3107004e-01
  1.4112510e-02
  1.1759005e+00
 -1.2129899e+00
  3.5833713e-01
  1.2909510e-03
 -1.9446427e-01
  1.5296183e+00
  1.5027641e+00
  3.8135698e-01
  6.5419916e-03
  8.5788928e-03
 -1.9667579e-01
  1.7210197e-01
 -1.0774737e-02
  1.5552453e-02
  1.4569007e-03
 -1.1711923e-03
 -4.4337839e-02
  4.9250442e-01
 -3.4219688e-01
  3.1516817e+00
  2.2208617e+00
  1.5356661e-02
 -9.3705416e-02
 -3.5991825e-02
  4.2612101e-03
 -4.0955064e-03
  2.3254352e-03
 -2.7173769e-02
  1.5860505e-02
 -2.3813355e-03
  1.1803403e-02
 -3.8495713e-03
 -1.9940887e-02
 -9.3014616e-01
 -1.8402161e-02
 -4.3297446e-01
 -2.0262541e-02
 -5.0452123e-03
  1.7181639e-02
  5.5239499e-03
 -2.2207338e-02
 -2.1742759e-02
  6.3305475e-02
  4.1325134e-03
 -1.8744314e-02
 -3.6700990e-02
 -3.4081303e-02
 -1.8236386e-02
  6.0524374e-02
 -5.7982756e-03
 -1.3180571e-02
 -2.1841623e-02
 -7.8261554e-02
  3.8709710e-03
 -1.6926555e-04
 -1.6813878e-02
  1.7963586e-02
  4.5301242e+00
  2.0757935e+00
 -3.8527158e-01
  3.6966318e-01
 -2.6290808e-02
 -8.9083612e-01
 -1.5842133e+00
  6.9078928e-01
  5.1811087e-01
  2.5378156e+00
 -2.1524661e+00
  1.8929331e+00
  2.7044016e-01
 -2.5101824e+00
  1.7244232e-01
 -1.7906785e-02
 -4.2624548e-02
  5.7339048e-01
  4.3349192e-01
 -1.0287645e+00
 -1.4088581e+00
  3.4182230e-01
 -2.2266278e+00
 -6.9027282e-02
 -7.6506436e-01
 -1.7877199e-01
  1.5606554e+00
 -1.0199932e-01
 -1.2008466e+00
 -1.7339751e+00
  1.1565444e+00
  1.2235736e+00
  7.1530479e-01
 -1.8343432e-01
 -1.6910846e+00
  5.2734995e-01
  5.2893227e-01
  1.6198897e+00
 -8.7670588e-01
  1.1573383e+00
 -1.7701980e+00
 -4.0989581e-01
 -3.7601812e+00
 -1.9105019e-01
  1.1408819e+00
  2.1389237e-01
  5.2150184e-01
  1.5443854e-01
  2.5152794e-01
  3.7069913e-02
  6.7942381e-01
  1.6352659e+00
  1.7415613e+00
 -2.6563607e-02
 -5.1519512e-03
 -3.5078520e-01
  1.4302507e-01
  1.3243673e+00
 -6.1739054e-02
 -1.2714376e-01
  9.7798109e-02
 -7.8972661e-01
  7.7163642e-03
 -9.2160809e-01
  6.5443105e-01
  1.3158776e+00
 -1.0258545e+00
  1.1154369e+00
  1.1320471e+00
  3.4093298e-02
 -3.9939559e-01
  1.1887923e+00
 -7.1597919e-02
 -2.0168395e+00
  2.2548623e+00
 -1.7267119e-02
  3.3334687e-01
 -3.9132053e-01
 -7.8363353e-01
 -1.3356711e+00
  1.3340650e+00
  7.6356357e-01
 -1.5926839e-01
  3.5967132e-01
 -1.6577252e+00
  4.2869231e-01
  2.2184553e+00
  4.0273693e-01
 -8.3485115e-01
  3.8855693e-01
 -9.2738825e-01
 -1.8620161e+00
  6.9255430e-01
 -2.2531176e-02
  1.0063987e+00
  1.3763432e-01
  2.5501169e-02
 -2.0161903e+00
 -3.3982363e-01
 -2.9567108e+00
  3.9543394e-02
 -8.3185512e-01
 -3.8309580e-01
  1.0424066e+00
 -1.4039253e+00
  1.4081131e+00
  6.1080947e+00
  1.7816840e+00
 -1.1600893e+00
 -3.0863008e+00
  1.3999914e-01
  3.2628961e+00
  1.4837983e-01
  4.0546614e-01
 -1.0434245e+00
 -1.9784034e+00
 -1.0234325e-01
  9.6749443e-01
 -6.2193441e-01
  1.9741152e-01
 -1.0682653e+00
 -5.6925988e-01
  2.9836050e-01
 -6.2107378e-01
 -1.9479550e+00
  1.8640211e-01
  2.1919441e+00
 -1.2121559e-01
 -1.3588887e+00
 -4.5585351e+00
 -3.0409932e-01
  3.1066579e-01
 -1.3855647e-03
 -2.6748434e-02
 -1.8810390e+00
  3.8564780e+00
  2.0023988e-01
 -2.3263192e-01
 -1.6197550e+00
  3.1161550e-01
 -8.5747935e-02
 -1.0008138e+00
 -2.0392456e+00
  2.1721469e-02
 -5.6108685e+00
  6.4547516e-02
  2.9525564e+00
 -1.0823065e+00
 -7.3838425e-01
  2.2299728e+00
 -3.2917218e+00
 -9.3131907e-02
 -9.8866540e-01
  3.7277398e+00
 -1.0863975e+00
 -2.5716019e-01
 -1.3284178e+00
 -1.3599361e+00
  2.1551447e+00
 -2.0038496e-01
  3.4479003e-02
 -1.9883531e-01
 -8.5313179e-02
  2.1113637e-03
  6.2738992e-02
 -6.7982022e-03
 -3.8003113e-02
 -3.6080047e-02
 -6.1354242e-02
 -3.7491772e+00
  5.5297831e-04
 -3.5929370e-01
  1.3797033e-01
 -2.4520192e-01
  7.0452869e-02
 -7.8814942e-01
 -1.6220421e+00
 -3.0913206e-02
  8.9239299e-02
  4.6460845e-02
  3.6940235e-01
  2.1249183e-02
  7.1756381e-01
 -7.4180579e-03
 -4.0810966e+00
  1.8882722e-01
  8.9498907e-02
 -2.2839662e-01
  2.3717495e-02
 -7.1817502e-02
 -2.9915944e-01
  2.1690141e-02
  7.9539940e-03
  3.1608407e+00
  6.7906725e-01
  1.2064389e-01
 -2.3920043e+00
  8.4425382e-02
 -1.9907506e-02
  1.1513239e+00
  4.6624620e-02
 -2.3194073e-01
 -9.5081580e-01
 -1.4383990e+00
  2.0639674e-01
  1.1366712e+00
 -1.4552949e-01
  2.0631382e+00
  1.1536658e-01
  4.1478574e-03
 -7.1775931e-01
  2.6020205e-02
  6.4834005e-01
  3.9107939e-03
  2.3831122e-01
  1.5671153e+00
  8.6666726e-02
  8.0555487e-01
  3.7577216e-02
 -7.9360652e-01
  1.5631436e-01
 -1.4474683e+00
  3.6643777e-02
 -4.5576409e-02
  8.5747433e-01
  9.2506129e-01
 -1.3408910e+00
  1.2155668e+00
  7.4956232e-01
  1.7867465e+00
 -5.1491123e-01
  7.7252842e-02
 -9.8446727e-02
 -2.6720515e-01
  9.4137661e-02
 -4.0491208e-02
  1.8967941e-02
 -3.8214347e-01
 -5.7079110e-02
 -4.7398058e-01
  1.2450994e+00
 -2.3541294e-01
  3.8260606e-01
  2.3936224e-01
  7.1039563e-01
 -1.5099981e+00
 -2.8829861e+00
 -3.2490749e+00
 -2.0115903e-01
 -1.8159589e+00
 -2.2621895e-01
  4.5654221e+00
 -3.1423507e+00
 -3.7370033e+00
  1.2504524e+00
 -1.9942502e+00
 -5.1381612e-01
 -2.1663529e-01
  9.9214792e-02
 -1.0091848e+00
  5.0156176e-01
 -1.4064915e-01
  2.1442817e-01
  1.6922629e-02
  1.4088343e+00
  7.8343594e-01
 -2.5874352e-01
 -2.9211369e-01
 -7.1402442e-01
 -1.2419244e+00
  6.5043467e-01
 -3.6607599e-01
 -1.3948712e+00
  6.4399356e-01
  3.2502466e-01
 -1.4208231e+00
 -3.8127236e+00
  1.4825317e+00
 -1.4460967e+00
  1.0175399e-01
 -1.5896602e+00
 -1.9623990e-01
 -1.9567481e+00
  9.2817271e-01
  3.0167015e+00
 -7.1803910e-01
 -4.8125750e-01
  7.8015916e-02
 -7.7803349e-01
 -1.8184963e+00
 -5.9146416e-01
 -2.0914052e-01
  4.0795121e-01
  1.7269685e+00
 -3.7232108e+00
  1.7808113e+00
  3.7236676e-01
 -1.5926406e+00
 -4.4793091e-03
 -1.7304460e+00
  5.7704385e-02
  6.0104918e-01
  2.1868743e-02
  3.9894697e-01
 -1.4849976e+00
 -2.1195185e-01
  4.4273953e+00
 -7.2092295e-01
 -2.9046876e+00
 -3.6369327e-02
  1.6873342e-04
  3.9559338e-02
 -2.4164898e-02
 -9.2392075e-01
  4.3754862e-03
 -3.5602975e-01
  9.8297161e-01
 -7.9263628e-01
  4.8096277e-02
  4.0799600e-01
  4.2496410e-01
  1.3372591e-01
 -6.6056418e-01
 -6.8885130e-01
 -2.1539779e+00
  6.3488364e-01
 -1.8932918e-01
  1.6168447e-01
 -1.1307158e-02
 -1.6348067e-01
 -4.1300990e-03
  9.9287689e-01
  1.5103729e-01
 -7.5227879e-03
 -1.7912973e+00
  7.6371608e-03
 -1.1483909e-02
  7.1789143e-03
 -6.5372540e-03
 -1.1201950e-01
 -1.7635757e+00
 -1.7005913e-02
 -1.2022484e-02
 -1.1951740e+00
 -1.1554899e+00
 -8.7773347e-01
  1.3173282e+00
  9.8320955e-01
 -1.3355254e+00
 -1.6822472e-01
  9.0475738e-01
 -1.0965221e+00
  2.1344485e+00
 -2.0480952e-01
  9.8216519e-02
  1.9853708e+00
  1.0745198e-01
  5.1049698e-02
  3.5499304e-03
  8.5068569e-03
 -3.6192000e-02
  3.3569235e-02
  3.7470553e-02
 -2.6237248e-02
  1.2287471e+00
 -4.5543531e-01
  4.4410173e-02
 -3.1067736e+00
  2.5758704e-02
 -2.4530089e-03
 -1.8229157e-01
 -3.7677553e-01
  5.1125485e-02
  6.6447812e-01
  1.1074338e-01
  1.9787177e-01
 -5.4537851e-02
 -2.0390404e-03
 -4.7419574e-02
  1.6774918e-01
 -3.0190897e-01
 -9.0808719e-03
 -4.7049969e-02
 -5.1724100e-03
 -3.2432792e-01
  2.5836834e-01
 -7.2363517e-03
  1.3224446e-02
  1.5050345e-03
  9.0295352e-02
 -2.6964793e-02
 -9.2332030e-04
 -2.2426987e+00
  2.7244005e-02
 -7.9270661e-01
 -1.5660158e+00
  2.8595915e-01
 -2.7011314e-01
  9.5008396e-02
  1.3568542e+00
  1.2927816e+00
  7.7264559e-01
  7.0471004e-02
  9.8105198e-01
  2.2734247e-01
 -3.0968789e-02
  1.5196831e-02
 -2.5456269e+00
 -5.4882342e-01
  4.5120459e-02
  2.8935185e-01
 -6.5799402e-03
 -9.4793934e-01
 -1.1293440e-01
 -5.6017053e-01
  3.3668313e-02
 -6.6242963e-01
  6.9699788e-01
  9.3080217e-01
  2.8765280e-02
  5.0496435e-01
 -8.2852066e-01
  8.4683346e-03
 -1.0445778e-01
  3.0892415e-02
 -2.9332228e-03
  1.1301580e-01
  1.6768707e+00
  8.4227376e-02
  2.9443870e+00
  6.6977995e-04
 -1.5123516e-01
 -3.8519806e-01
  9.7773090e-02
 -2.3248920e+00
  1.3089989e+00
  3.0326682e-01
 -8.1346437e-02
  1.7995623e-01
 -4.1371122e-01
 -9.3187556e-02
 -3.2158911e-01
  1.6258782e+00
 -5.3734499e-01
 -2.6416259e+00
  7.1627468e-01
  8.8262326e-01
  2.6989037e-01
 -1.8497621e+00
 -1.5845193e+00
  2.9058588e-01
 -2.4416284e-01
 -6.0366839e-01
  1.7100582e+00
  3.4845035e+00
 -8.0650336e-01
  6.1112393e-02
  2.4447786e-02
  6.2623549e-01
  1.5280175e-01
 -1.1125507e+00
 -1.4156137e-02
  6.9649529e-01
 -1.9865917e+00
 -7.2951339e-02
 -4.4177762e-01
 -2.7634907e-01
  1.5613048e+00
  4.0435708e-01
  1.4375879e+00
  1.3641942e-01
  3.2107928e-01
 -7.1455455e-01
 -2.2363923e-01
  5.1013350e-01
 -9.5605224e-01
 -1.9022001e-01
  4.9506843e-01
 -3.5638399e+00
 -9.0102392e-01
  1.2326615e-01
  1.5557592e+00
 -2.9844487e-01
  2.6105940e+00
  3.2500696e-01
  7.9746515e-01
  1.1087167e+00
  1.3468109e+00
  1.3612006e+00
  6.2851268e-01
 -4.9038101e-02
  4.0329232e+00
  7.9491514e-01
  8.2039231e-01
 -2.2681600e-01
 -2.7181628e-01
  9.7018558e-01
 -2.6882217e+00
  6.7666876e-01
 -4.7741500e-01
  7.0676708e-01
 -1.5053871e+00
 -2.5041525e+00
  6.3206166e-01
  3.6923826e-02
  1.9199723e-02
 -5.5084157e-01
 -1.8613888e+00
 -3.4392402e+00
 -2.2883348e-01
 -7.5610346e-01
 -1.1006806e-01
 -2.3270638e+00
 -4.6382660e-01
 -3.1554066e-02
  5.5914521e-01
  9.0599334e-01
  3.7244385e-01
 -1.6262051e+00
  3.2785338e-01
  7.6628011e-01
 -7.5541729e-01
 -4.1961724e-01
 -6.4373583e-01
  3.0851504e-01
 -3.4701815e+00
 -1.4327416e-01
  2.4560039e+00
 -1.0440779e+00
 -2.0074606e-01
  5.3284568e-01
  1.5483147e-01
  4.3050468e-01
  5.7918924e-01
 -3.6139979e+00
 -1.2210821e+00
  3.8554733e+00
 -5.3384346e-01
  1.9323390e+00
 -1.2443548e+00
  8.1913936e-01
 -5.6131357e-01
  4.1298413e-01
  4.8878953e-02
  1.5931587e-01
  1.1735684e-01
  8.0625318e-02
  8.9727573e-02
  1.4597161e+00
 -1.4927702e+00
  4.2257753e-01
  3.0062547e-01
  7.3763341e-02
  1.6260377e-01
 -2.4330050e-01
 -5.1872707e-03
 -9.4369940e-02
  9.5737934e-01
 -8.8791978e-01
 -7.8257732e-02
 -1.8411885e-01
 -8.4424329e-01
 -1.0129397e+00
  2.2145030e+00
  1.4971666e-01
 -1.5576472e+00
 -2.0555855e-01
  1.2113870e-03
  7.0468646e-01
 -4.3554759e-01
 -5.7216180e-03
 -1.2152637e-01
  5.7058096e-01
 -8.8346981e-02
 -3.9291424e-03
  7.5287849e-01
  1.3352158e-02
  4.8302352e-01
  5.0770092e-01
 -5.7466096e-01
 -1.5235868e+00
 -3.3237465e-02
  1.7078219e-02
  4.6046281e-01
 -8.6359549e-01
  9.2534997e-02
 -6.4796791e-03
  1.1475845e-01
  1.5014788e+00
  9.8312521e-01
 -2.5479466e-01
 -2.9231832e+00
 -1.6023332e+00
  4.0061125e-01
 -1.7207990e+00
 -1.3649367e-01
 -3.1876516e-01
 -3.8883965e+00
  1.2856975e-01
 -1.6920099e-01
 -2.1785755e+00
  1.1356671e+00
 -3.4082263e+00
 -1.3138520e+00
 -4.7030306e+00
  1.1392987e-02
  3.9673051e-01
 -1.8942666e+00
 -3.3679521e+00
  1.6912051e+00
 -7.6817381e-01
 -1.4165341e+00
 -4.9501199e-01
 -1.0815288e+00
 -1.8743814e+00
 -5.2091378e-01
 -1.1746569e-01
  3.0488691e-01
 -1.4752148e+00
  1.4425896e-01
  1.6975657e+00
 -1.4006932e-01
 -3.9234450e+00
  1.0934869e+00
 -1.5440457e+00
  1.1113982e+00
 -1.6780705e+00
 -3.7385728e-02
  2.9027131e+00
  1.2845582e+00
 -3.8795917e+00
 -8.9000601e-01
  2.3600837e-02
 -6.6987181e-01
  1.2416579e+00
  7.5200438e-02
  2.5753853e+00
 -1.1038990e-01
  9.9756885e-01
  1.8703522e-01
  9.3778698e-03
 -2.9576652e+00
  3.7802581e-02
  3.5182312e+00
 -3.2220453e-01
 -5.7110929e-01
 -1.0162071e+00
 -1.8880421e-02
  1.1205627e+00
  2.4123490e+00
 -8.8747550e-04
 -4.3916503e-01
 -8.7351054e-03
 -5.2384597e-01
  1.1323082e-01
 -4.7667202e-02
  5.9618790e-02
 -1.3397517e+00
 -3.7847351e-02
  1.2837749e-02
  1.1205385e-01
  1.0275908e+00
  1.6800476e+00
 -1.7870833e-01
  1.1293612e-01
 -2.5493515e-01
 -8.2605720e-01
 -2.1836464e+00
 -9.1835082e-01
  5.6563824e-01
 -2.5950832e+00
  1.1802949e+00
 -5.9251326e-01
 -2.6701109e-02
 -1.2454501e+00
 -2.1965451e+00
 -1.0402519e-01
  5.8997053e-01
  7.7944547e-02
 -1.7172873e+00
  2.1123604e-01
  4.9980313e-02
 -1.2719252e-02
  3.7669113e-01
  1.2465478e-02
 -1.9852708e-01
 -7.8192391e-03
  2.1278720e-02
 -2.6544102e-02
  4.7666382e-02
  1.7047305e-02
  8.9393929e-03
 -2.6724657e-02
  3.8832058e-03
  2.5181849e-02
 -8.9723421e-03
  7.8364238e-03
 -3.4236275e-02
  1.8776195e-02
 -1.3567552e-02
 -6.2158581e-02
  6.1903462e-02
 -1.0921193e-02
 -8.1187366e-03
  1.0541670e-03
 -1.9097846e-02
  2.4149934e-02
  1.0642485e-01
 -1.8281275e-02
  4.3907952e-02
  9.0855919e-02
 -6.4662909e-03
  2.2370018e-02
  6.8899454e-03
  2.0039055e-02
 -3.9638516e-02
 -1.4622792e-02
  4.4981536e-02
 -3.6748499e-03
 -1.6122848e-02
 -1.0632228e-02
 -3.5239225e-03
  8.3970837e-03
 -1.8321196e-02
  1.3892250e-03
 -5.5756373e-03
  6.1575763e-02
  1.0057993e-02
  5.2509001e-03
  2.4153596e-02
 -3.8805086e-02
 -3.1693276e-02
 -8.9648890e-04
 -2.4909714e-02
  2.3809619e-02
 -2.2271037e+00
  5.3359705e-01
 -6.5673262e-01
  3.4276264e+00
 -2.4664145e+00
 -1.0911247e+00
 -8.2194500e-02
 -1.7396031e-01
  3.2592125e+00
  9.3333054e-01
  1.5635225e+00
 -1.7763442e+00
 -1.3440493e+00
 -6.8693119e-01
  1.7628119e+00
 -3.0922717e-03
  7.5413454e-01
  8.6404794e-01
 -1.5792416e+00
  2.5568552e+00
  2.1369076e+00
  1.0909155e-01
 -2.9284225e+00
  1.4797838e-01
 -2.6034431e+00
  1.6001026e-01
  1.5862353e+00
 -1.9175161e+00
  5.6356424e-01
 -4.0812618e-01
  8.7608889e-02
 -7.0086338e-02
  1.3317754e+00
  9.2915320e-01
 -1.8523677e-01
 -9.3970847e-01
 -2.1481025e+00
  1.3542497e+00
 -7.6176751e-01
  2.1951066e-01
 -1.2274199e+00
 -2.1896641e+00
 -2.0451000e+00
 -1.0699792e+00
 -1.5430048e+00
 -3.3133972e-02
  3.0052105e-01
  1.5332799e+00
  1.9475025e+00
 -2.6935244e-01
  1.9016536e+00
 -1.4740030e+00
  5.9552312e-01
 -1.4251633e+00
 -6.2375158e-01
 -5.2233148e-01
  9.0755081e-01
  3.3738759e+00
  4.0286870e+00
 -2.4129798e+00
  3.9565880e+00
 -7.8442544e-02
 -3.4254427e+00
 -6.8789595e-01
 -8.7893265e-01
  2.0326482e-01
  2.0759981e+00
  9.3562029e-02
 -8.8056868e-01
  1.0376009e+00
  1.3886545e+00
  5.5871737e-01
  2.3031716e-01
  9.6080758e-02
  7.3004723e-01
 -1.1083761e+00
  1.7374713e-02
 -5.2064262e-02
  1.2657112e+00
 -2.8500292e+00
 -1.6798905e-01
 -2.2331049e+00
  3.1123252e+00
  6.0964513e-01
 -5.7981312e-01
 -4.0476602e-02
  1.0271494e-01
  2.0558953e+00
  2.0216706e+00
 -1.2590604e-01
  1.2323983e+00
  7.0037049e-01
 -1.6074431e+00
 -2.1863447e-01
  1.5610820e-01
 -2.3663829e-01
 -4.5706663e-01
 -3.6809739e-01
 -6.1512953e-01
  3.2525263e+00
 -3.8243933e+00
  2.3890200e+00
 -1.4826331e+00
 -4.1416045e-02
  1.8775611e+00
  1.8684115e+00
 -3.9436214e+00
 -3.3578288e-02
  4.2499326e-02
  9.5296466e-01
  1.4399627e+00
  1.3609548e+00
 -1.6277803e+00
  3.3632770e+00
 -3.5471756e+00
  7.2168779e-01
 -5.4897970e-01
 -1.1670509e-01
 -2.5364063e+00
 -6.8030223e-02
 -3.2384419e+00
  2.5282413e-01
 -2.0231485e-02
  1.4097490e+00
  3.7283869e+00
  2.8514671e+00
 -2.5753081e-01
  1.7950835e+00
 -3.5929654e+00
  1.2906590e+00
 -4.8818183e-01
 -3.1966641e+00
  7.1720642e-01
  2.0305700e+00
 -1.3762902e+00
  2.2379100e+00
  5.2946883e-01
 -8.5862768e-01
 -2.4292591e+00
  2.3971393e+00
  3.8834505e+00
  1.2664135e-01
 -3.5014207e+00
  1.3901982e+00
  2.5149333e+00
  6.0254517e+00
  1.4421995e+00
  3.5184863e+00
  4.6169871e-01
  5.4310185e-01
 -1.4077805e+00
 -2.9305143e+00
 -7.4712640e-01
  2.1961012e+00
 -3.1451244e+00
  2.2278862e-02
  1.9725148e-01
  1.6853391e+00
 -4.8622477e-01
  2.0349033e+00
 -6.7740440e-01
 -8.6375445e-02
 -6.1473675e-02
 -3.2284459e-01
 -6.9909465e-01
 -1.1520304e-01
  3.7898146e-02
  6.5928604e-03
 -4.5339242e-01
  8.3076417e-02
  1.0604902e-01
  5.7244968e-01
 -3.6540192e-01
 -3.5550175e-03
  3.3802289e-01
 -1.5835562e-01
 -3.0621862e-01
 -4.2214263e-02
 -8.8459200e-01
 -3.6886969e-01
 -1.2147195e+00
 -2.6855806e-01
 -1.3090084e-02
  3.5375872e-01
  1.2301439e+00
  1.9180578e-01
 -5.6273037e-01
 -1.2507150e-01
  6.9347334e-01
 -8.2758033e-01
 -8.3914584e-01
 -8.0920660e-01
  1.2249400e-01
 -1.4856362e-01
 -4.5858285e-01
 -2.4266025e-01
 -3.2280526e-01
  1.5318516e-01
 -1.4619932e+00
 -5.4531693e-01
  3.8876474e-02
  1.6224899e+00
 -1.9517043e+00
 -1.5594296e-01
 -1.2718475e-01
  1.2179945e+00
  5.5418330e-01
 -4.9846675e-02
  9.2642665e-02
 -6.6356057e-01
  5.9615368e-01
 -2.4921702e-01
 -2.3476814e-01
 -2.1661054e-01
 -6.0254019e-01
 -2.8594930e-03
 -3.1492415e-01
  2.3622905e-01
 -9.8848648e+00
 -1.8833255e+00
  2.3545918e+00
 -3.5338855e+00
  1.0127984e+00
  9.8447138e-01
  2.9547000e+00
 -1.4851111e+00
 -6.3444835e-01
 -2.5169923e+00
 -1.4443724e+00
 -5.9079826e-01
 -5.9819025e-01
 -6.0007703e-01
 -1.0840285e-01
  1.0570334e-01
  1.1138445e-01
 -1.0338164e-01
 -2.5951562e+00
 -2.4220612e+00
 -6.4517355e-01
 -3.8503021e-01
 -9.3897426e-01
 -1.3047324e+00
 -3.2749927e+00
  4.6557885e-01
 -1.5647370e+00
  1.2951503e+00
 -4.2698941e+00
  6.7891707e+00
 -1.9102502e+00
 -2.4289730e+00
 -8.5895720e+00
  1.3191013e+00
 -3.6047788e+00
 -1.1121815e-01
  2.4363034e+00
 -1.6659027e+00
 -5.0568068e-01
  6.6192377e-01
  1.0219674e-01
  1.5457859e+00
 -3.0571106e-01
 -2.3178203e+00
  9.6995860e-01
 -1.0387276e+00
 -1.0006490e+00
 -4.7911572e+00
 -1.9665182e+00
  5.2124578e-01
  1.2670134e-01
 -2.6035502e+00
  3.6312742e+00
 -1.1466755e+00
 -4.9392104e+00
  1.0183616e-01
 -3.5328236e+00
 -4.1202214e-01
  4.3322998e-01
 -1.4055421e+00
  1.8515182e+00
  5.9312475e-01
 -7.4455553e-01
  1.8828727e+00
  1.1252429e-01
 -4.0234070e+00
 -1.1190680e-01
  1.5629213e+00
 -2.0389001e+00
 -5.2848330e+00
 -2.1686513e+00
  3.7928524e+00
 -7.6859182e-01
 -1.4965792e+00
  1.2126957e+00
 -1.4830009e+00
 -3.4049404e-01
  1.2067548e+00
 -3.0794233e-01
 -1.0292304e-01
  1.8066645e+00
  1.8306099e+00
 -3.9590436e-01
 -9.2579639e-01
 -2.1585724e+00
 -2.2799313e+00
 -1.6711942e+00
 -6.5258491e-01
 -2.5553026e+00
  2.1592349e-01
  2.6866655e+00
 -2.3023050e+00
 -8.8454086e-01
  3.6882302e-01
  1.3012289e-01
 -1.0168262e-01
  1.4128458e+00
 -3.5072866e-01
  1.3354750e-01
 -3.2482100e+00
 -1.0010824e-01
 -8.8668942e-01
 -6.6164761e+00
  6.7428190e-01
 -6.4818621e-01
 -5.9375530e-01
 -2.6876861e-01
 -1.2081155e-01
 -2.5995502e-01
  1.4534478e+00
 -7.6031190e-01
 -4.0908933e-01
  2.0076392e+00
  3.1301966e+00
 -6.2250364e-01
 -2.0804722e+00
  1.2060833e-01
 -1.2298448e+00
 -1.0859488e+00
  1.0273709e-01
 -1.0566581e+00
 -1.7019004e-01
  2.6657896e+00
  2.7261736e+00
 -1.1320104e-01
  1.0478003e-01
 -6.6768891e-01
 -6.6521400e-01
  5.6999173e+00
 -1.8000313e+00
  5.7332379e-01
 -3.4273040e+00
 -2.4157426e-01
 -1.1416974e+00
  1.0600656e-01
  7.8380859e-01
 -8.6891872e-01
 -3.4433931e-01
 -5.6581030e+00
 -1.0068371e-01
 -3.7045109e+00
 -3.7027556e-01
 -8.4504187e-01
 -1.0325841e-01
 -2.1396093e+00
 -8.0095404e-01
 -2.1680158e-01
 -5.6318724e-01
 -1.1098126e+00
  2.4710612e+00
  2.2922029e+00
 -1.0056378e-01
  1.3549683e+00
 -2.2264659e+00
 -1.5592735e+00
  1.9781299e+00
  3.7309225e+00
 -3.6970368e-01
 -1.0000207e-01
 -1.0716273e-01
 -1.1553714e+00
 -3.4420779e-01
 -3.0664879e-01
 -3.8231796e-01
  9.4116420e-01
 -3.9357543e+00
  1.5718734e+00
 -1.9520038e+00
 -1.4294963e+00
 -2.2372511e-01
 -4.6669403e-01
  8.4760839e-01
  1.0063556e-01
 -1.6314583e-01
  6.0490942e-01
  1.5043684e+00
  3.2979877e+00
  1.0576304e-01
 -2.2634223e+00
 -1.3688466e-01
  2.1112189e+00
 -9.9877518e-01
  3.5322356e+00
  1.7697221e+00
 -2.2982929e+00
 -3.4284661e+00
 -1.6532621e+00
 -1.2283272e+00
 -9.8673016e-01
  2.6469536e+00
  2.7025914e-01
  1.8225393e+00
  1.7383496e+00
  3.0243819e+00
  7.1692739e+00
  2.2946291e+00
 -2.3252614e+00
  1.6852728e-01
  2.0497432e-01
  1.7869320e+00
  6.7863458e-01
  5.2510363e-01
  3.3409069e+00
 -4.7267088e-01
 -5.7832468e-01
 -2.6925526e+00
 -1.2241466e+00
 -6.4700335e-01
  1.7760545e-01
  7.2806275e-01
  1.0344698e-01
 -1.9272416e+00
  1.5222750e+00
  3.0586472e+00
  5.4975373e-01
  1.0417493e-01
  3.4539840e-01
  5.7641894e-01
  3.0270185e+00
 -1.5536544e+00
 -7.9065114e-01
 -5.6616907e+00
 -9.8583698e-01
  2.3094413e+00
 -9.3686002e-01
  4.9559531e-01
  5.9908433e+00
 -5.9643281e-01
  1.0041308e-01
  1.0753455e+00
 -9.6289176e-01
  8.3226013e-01
 -8.7758255e-01
 -2.1497123e+00
  3.5328789e+00
 -1.2375927e-01
 -3.2202361e+00
 -1.3618365e-01
  4.8696613e-01
 -1.1584915e+00
  2.1127064e+00
  1.0082587e-01
 -1.0322665e+00
 -2.0138448e-01
  8.8895220e-01
 -4.0800271e+00
  3.2682917e+00
  2.7041724e+00
 -3.6714668e+00
 -3.3327792e+00
  1.2355665e+00
 -1.3688771e+00
 -2.0363898e+00
  1.1442129e-01
  3.6369219e-01
 -8.7954259e-01
 -2.4402946e-01
 -3.4706440e+00
 -1.0067754e-01
  1.0020273e-01
 -2.6794758e-01
 -6.6434968e-01
  1.0750484e-01
  9.7297180e-01
  7.1460575e-01
 -2.9924479e+00
  3.1260281e+00
  2.4146521e+00
  4.2953932e-01
 -2.3962238e-01
  3.5699365e-01
 -2.8813992e+00
  3.0933022e-01
 -4.3195405e+00
  1.8909490e+00
 -1.0741930e-01
 -2.3724518e+00
  3.6918468e+00
 -2.2242472e+00
 -2.5450978e+00
  1.7959282e-01
  1.2843834e-01
  3.5881765e+00
  2.2497430e+00
  7.3929936e-01
  1.0242184e+00
  4.9912786e-01
 -2.7962968e+00
  1.5437120e+00
  1.4255404e+00
  1.5168786e-01
 -3.0973380e+00
 -2.6864867e+00
 -3.9705522e+00
  2.8654051e+00
 -1.0063980e-01
 -1.5127487e+00
 -1.9980767e+00
  1.7362344e+00
  2.5643592e+00
 -4.1433082e+00
 -1.0047305e-01
  1.8122703e+00
  5.0692755e-01
  2.9094684e+00
 -4.1314187e+00
 -1.6283932e-01
 -2.2866850e+00
 -5.2273159e+00
 -1.7291002e+00
  2.1263866e-01
  2.2863251e-01
  1.0259141e-01
  8.5073054e-01
 -2.5945127e+00
  2.2175386e+00
 -1.8277625e+00
 -1.0423696e-01
  7.3446506e-01
 -1.3535049e+00
 -1.5121338e+00
  1.2027524e-01
 -1.2772273e+00
 -8.0047119e-01
 -1.2453040e+00
  7.6126206e-01
 -4.6631235e-01
  3.5498426e+00
  9.8614007e-01
 -4.0992856e+00
 -3.3316784e+00
 -2.3457689e+00
 -4.2861935e-01
  1.2770317e+00
 -4.2471442e+00
 -7.4924481e-01
 -2.1658182e+00
  1.3439912e+00
  1.2876713e-01
 -3.9718232e+00
 -5.8229858e-01
  1.2415228e-01
  1.0953057e-01
 -4.1633815e-01
 -3.8253200e-01
  1.2845145e-01
 -1.8822201e+00
 -1.0417565e-01
  2.0424581e+00
  1.4518796e+00
  4.4044915e-01
 -3.6542604e+00
  1.2056042e-01
 -5.3519187e+00
  4.1193023e+00
 -4.2675892e-01
 -2.3942301e-01
  1.5958107e+00
  2.3206899e+00
  9.3825525e-01
  2.4029541e-01
 -1.9174813e+00
 -1.4473839e+00
 -7.9526532e-01
  9.1175014e-01
 -4.2179632e-01
  1.3528150e-01
 -2.0130165e+00
  2.6698351e+00
 -9.5837760e-01
  3.3675146e+00
  3.5420909e+00
  1.5874959e+00
  8.1908715e-01
  2.7386508e+00
  2.0809834e+00
 -1.9992575e-01
 -1.3588476e-01
  7.4287248e-01
 -1.0013950e-01
  5.7114977e-01
 -2.2641742e+00
  1.4707229e+00
  1.7544273e+00
 -3.1753178e+00
  1.0506088e-01
 -1.0039805e-01
  5.6853658e-01
  2.2509291e+00
 -1.8232455e+00
 -4.4468045e+00
  2.8760695e-01
 -3.0872991e+00
  1.0201924e-01
 -2.6333783e+00
  6.3722968e-01
 -2.2842090e+00
  2.9145987e+00
 -1.8790725e+00
 -1.0800340e+00
  7.8152671e+00
  1.1388329e+00
  4.7977003e-01
 -3.7930572e-01
 -1.0447497e-01
 -2.1968448e-01
 -1.0496070e-01
  1.1626521e+00
  1.0828835e+00
  1.0419643e-01
  3.1439877e-01
  1.2837565e+00
 -3.8539022e-01
  1.0852810e-01
 -1.6818404e+00
  7.6537102e-01
 -1.1989678e-01
 -1.0441593e-01
  1.1435580e-01
 -1.4975446e-01
 -1.0464048e-01
  1.2746273e-01
  1.0728161e-01
 -2.3433278e+00
 -2.7407482e-01
 -2.7397326e-01
 -1.4324294e+00
 -1.1392546e-01
 -1.0408947e-01
  9.4069809e-01
 -1.9234736e-01
  1.3964058e-01
  3.5064056e+00
 -1.5997179e+00
 -8.3121425e-01
 -2.8263657e+00
 -1.0108547e-01
  1.5091063e+00
  2.3173365e-01
  1.6443250e-01
  3.8523954e-01
  1.4340851e+00
  1.0336201e-01
  3.1669655e-01
 -2.1995831e+00
 -1.1242370e-01
  2.5460771e-01
 -1.1723238e-01
  1.0058668e-01
  1.8792315e+00
 -2.0587595e+00
 -1.0262292e-01
 -4.8848268e-01
 -2.5396740e-01
 -1.0037951e-01
 -1.6675494e+00
 -1.4046575e+00
  4.3148115e-01
 -1.0198963e-01
 -1.0057038e+00
  4.2072072e+00
  1.0469797e-01
  1.4319116e-01
 -1.1155144e-01
  4.6899419e+00
  1.1124213e-01
  1.8127975e-01
 -1.2146692e-01
  1.2819765e+00
 -7.7860385e-01
  1.2230766e-01
 -1.0905612e+00
 -1.1534166e-01
 -1.1022621e-01
  1.0172895e-01
 -1.4849445e-01
  1.0369657e-01
 -3.1554718e+00
 -2.8359814e+00
 -3.5804823e-01
 -2.0023305e+00
  1.0048850e-01
 -6.3978040e-01
 -1.1210412e-01
  1.5546620e+00
 -1.5477109e-01
  1.8226075e+00
  1.3773127e-01
 -4.1239652e-01
 -2.8820729e+00
 -1.2190175e+00
 -1.6693567e+00
 -4.1997805e+00
 -6.8130918e+00
  2.8337881e-01
 -3.9893347e-01
 -3.0023661e-01
  1.0968224e+00
 -3.9526525e-01
  1.0283542e-01
 -1.0168324e-01
  1.4949356e+00
  1.0294700e+00
  1.5739012e-01
  7.9120487e-01
 -5.9314570e+00
  3.3356967e+00
 -1.4951009e+00
  1.4289745e+00
 -2.1114421e-01
 -1.2178937e+00
  1.8290349e+00
 -2.2403951e+00
 -7.6709646e-01
 -6.4910132e-01
 -2.3158293e+00
 -3.9495320e+00
  6.2859912e+00
 -5.0963628e-01
  2.4174550e+00
  5.2355355e-01
 -4.0678778e+00
 -1.8892519e+00
 -1.0047144e-01
 -2.5262170e+00
  5.6019813e-01
  6.8403989e-01
  3.3777092e+00
  1.4123570e+00
 -1.0682932e-01
  1.0623038e-01
  4.2609663e+00
  1.4302033e+00
  9.5496362e-01
  1.7603314e+00
 -2.2172503e+00
 -2.3475258e+00
 -6.8330388e+00
  6.3255197e-01
  2.1853218e+00
 -1.3614055e+00
  8.6903673e-01
  2.1701198e+00
  1.0003626e-01
 -7.1385479e-01
 -2.2051511e+00
  6.0849065e-01
 -2.7374535e+00
  1.0032532e-01
  5.3256887e-01
 -2.9767344e+00
  3.0002539e+00
  1.7391989e+00
 -2.4693706e+00
  4.5517683e+00
  4.0255313e+00
  1.5724497e+00
  1.0054268e-01
  1.8781401e+00
  4.1410675e+00
  9.4916523e-01
 -3.2505686e+00
 -1.0103638e-01
  3.8423502e+00
  5.6820148e-01
  3.3536730e+00
 -1.8319241e+00
  1.3581141e+00
 -1.7722828e+00
 -3.4285486e-01
 -8.5672921e-01
 -1.9130613e+00
 -1.3474604e+00
 -9.4560975e-01
  5.1751451e+00
 -1.4902995e+00
 -3.0412629e-01
 -6.5217060e-01
 -1.4951266e+00
  1.1739455e-01
  3.1626022e+00
 -1.0104811e+00
  1.1662295e+00
 -1.3543330e-01
 -1.7046335e-01
  8.6840677e-01
  4.5643868e+00
 -1.0060176e-01
  4.3492365e-01
  3.8469713e+00
  2.2364538e+00
 -1.6080769e+00
  1.3147704e-01
 -2.9869977e-01
 -2.9317040e+00
 -2.1083343e+00
 -5.3578906e+00
  1.5159127e+00
 -1.5954418e+00
  7.8976536e-01
  2.3189816e-01
 -4.3769383e+00
  1.0352178e-01
  3.1243794e+00
  4.9767389e+00
 -1.9983996e-01
  1.8301220e+00
 -1.4116834e+00
 -1.0440413e+00
 -2.8253987e+00
 -3.3427247e-01
 -1.0438164e-01
 -2.7512437e-01
  1.5043537e-01
 -2.8183651e+00
  1.2467139e+00
  1.0548044e-01
  2.1472278e+00
  3.3175726e+00
  1.0308538e-01
 -1.0171357e+00
 -1.8867432e+00
 -1.0101616e-01
  3.3169636e-01
 -2.6755488e+00
  2.4696910e+00
  7.9317415e-01
 -2.1143546e+00
 -1.5706818e+00
  1.0096742e-01
 -1.6565217e+00
  1.9705704e+00
  5.1653962e+00
  1.1978340e+00
 -3.6467904e-01
 -2.2274978e+00
 -2.7765062e-01
  4.1565293e-01
 -6.5549201e-01
 -1.3208207e+00
 -3.8349253e-01
 -2.3833650e-01
 -3.0780566e+00
 -1.6578385e-01
 -4.7331848e+00
 -8.9775497e-01
 -1.8703156e+00
  1.0243869e-01
  1.1507712e-01
 -1.9674634e+00
 -1.2036754e-01
 -5.1758766e+00
 -2.2226257e+00
  1.3941537e+00
  1.1697279e+00
  1.7535467e+00
 -2.7609057e+00
 -4.8301697e-01
 -1.0013708e-01
 -1.7093945e-01
 -3.0522037e-01
  1.0606240e-01
 -2.3660949e-01
 -7.5443536e-01
 -1.0131409e-01
 -1.0091341e-01
 -6.3881952e-01
 -1.5442787e-01
 -1.6230315e+00
  2.1466687e+00
  2.4764524e+00
  2.7657213e+00
 -3.3525628e-01
 -1.2903452e-01
 -1.1911833e+00
  1.9444028e+00
 -7.3419333e-01
  3.2687883e+00
 -1.1657109e+00
 -3.7106149e+00
  1.5927830e+00
 -3.6493807e+00
 -1.5208014e+00
  9.6535528e-01
 -3.2568514e+00
  2.2628343e-01
 -4.9969801e-01
 -1.5978032e+00
  5.7416624e-01
 -1.1296801e-01
  4.8884314e-01
  2.0302412e-01
 -1.8803622e-01
  7.0175010e-01
 -1.1903052e-01
 -3.5771148e+00
  1.8185689e+00
 -3.1914911e+00
  4.0483141e+00
  3.7075951e+00
  4.2071671e+00
  1.2965286e+00
  3.6532135e+00
 -1.0445985e+00
 -8.9030439e-01
  5.4191750e-01
 -8.4119642e-01
 -6.3613617e-01
 -3.2888556e+00
  1.0473689e+00
  4.3429108e+00
 -1.9231634e+00
 -1.7723683e+00
  1.0068759e-01
 -9.0746361e-01
 -1.9915268e+00
  2.7768376e+00
 -3.3585908e+00
  2.2721207e+00
  2.2730823e+00
  1.0841760e-01
  4.8547858e-01
 -1.2596366e+00
  1.7741495e+00
 -2.3097589e+00
  1.2419955e+00
  1.4341270e+00
 -5.4418069e-01
  3.6218011e+00
  1.3756359e+00
  2.1299417e+00
 -1.9408631e-01
  2.1124026e-01
 -1.1159619e+00
  1.0092582e-01
 -3.4194424e+00
 -1.8773749e+00
  1.1399955e-01
  1.3273559e+00
 -1.4572607e+00
 -6.3397992e-01
 -1.0852387e+00
  2.8682706e+00
 -7.1587861e-01
  1.0634665e-01
 -1.0774688e-01
  1.1771360e-01
  5.0674524e+00
  4.6375303e+00
 -3.7936821e+00
 -2.4232550e+00
  5.6978291e-01
 -1.7326919e+00
  7.0269114e-01
  2.3413196e+00
 -1.0782554e-01
 -1.5756229e+00
  1.0002691e-01
 -2.9702280e+00
  4.1816716e+00
 -3.8719809e-01
  9.5919055e-01
  2.4322584e+00
  1.2102820e+00
  2.1156201e+00
 -1.3269048e+00
  1.6025200e+00
 -3.7243638e+00
  1.5604807e+00
 -1.3316023e+00
 -3.9411740e+00
  1.0139980e-01
  6.6889852e-01
  9.7990757e-01
  8.3580440e-01
  2.6377344e-01
 -4.0250988e+00
 -1.0541870e-01
  5.9586763e+00
 -5.0619278e+00
 -3.5750297e-01
  1.3233061e+00
  1.1082991e-01
 -1.0683945e+00
 -5.6957620e-01
  1.6369624e+00
 -1.2789482e+00
  3.9109344e+00
 -1.0044359e-01
 -3.3306975e+00
  1.5204759e+00
 -4.7093611e+00
 -3.5480976e-01
  1.2427441e+00
 -1.3692538e-01
 -1.2316798e-01
  2.0939267e+00
 -2.2128685e+00
  1.0036831e-01
  2.7339390e-01
 -3.3142903e+00
 -2.3898230e+00
  1.4245371e+00
  4.3865833e-01
 -3.0409381e+00
 -2.8051333e+00
 -2.9877813e+00
 -2.0730195e+00
 -1.9733113e-01
  2.7997174e+00
  1.1553171e+00
  3.9394054e-01
  3.1497009e+00
  1.8993053e+00
 -3.3326085e+00
  2.5374320e+00
  1.4482342e-01
  2.5667086e-01
 -6.7404014e-01
  7.5163931e-01
  1.2495881e+00
  8.2169825e-01
 -1.3004404e-01
  1.0518031e-01
  1.9041680e+00
 -1.4253163e-01
  1.3109170e-01
  1.0989965e-01
  4.8161522e-01
  1.5244515e+00
  5.1120853e+00
 -5.6593388e-01
 -1.0767119e+00
 -1.5661898e+00
 -3.6007616e-01
 -8.0260253e-01
  1.3175198e-01
 -2.2195201e+00
 -3.3245947e+00
 -4.5546287e-01
  1.0099106e-01
  1.1828133e-01
  2.8688354e+00
 -1.6735886e+00
 -2.5969629e+00
 -4.8645968e+00
 -9.0970075e-01
 -1.0317858e-01
 -1.9397031e+00
 -1.8661035e+00
 -2.7014625e-01
  4.0086284e+00
 -1.4416958e+00
  4.4985273e-01
  2.1379573e+00
  9.7165889e-01
 -3.5007560e+00
 -7.4321097e-01
 -1.3426377e+00
 -1.7934576e+00
  3.9564459e+00
 -2.3487725e+00
  7.1313399e-01
 -4.5534679e-01
 -2.1066964e+00
  1.1536041e+00
 -1.0163854e-01
  8.0971718e-01
 -2.1071807e-01
  2.4745369e+00
  2.2192812e+00
  2.0784566e-01
 -2.9222553e+00
  1.0289276e-01
  5.6968099e-01
 -3.0050609e-01
 -3.3095770e+00
 -1.7574235e+00
  1.3518369e-01
  3.1661215e+00
 -2.0164354e+00
  1.5580680e+00
  1.3247643e+00
  4.4399801e-01
 -9.5496786e-01
  1.6241529e+00
 -1.9372313e+00
  3.1135473e+00
  1.7401620e+00
  1.5327772e+00
  1.9460130e+00
  1.0070951e-01
 -5.0688392e-01
 -1.5396388e+00
 -1.0654861e+00
  4.9691334e+00
  3.0403969e+00
  7.7929890e-01
  5.7706547e+00
 -2.6911795e+00
 -2.5465560e-01
  1.1379466e-01
  2.5062594e+00
 -1.7923741e+00
  1.4704570e+00
  1.7584705e-01
  2.6648307e-01
  1.0399256e-01
  3.2646778e-01
  4.1051537e-01
  1.0760223e-01
  1.0087765e+00
  1.5194662e+00
 -1.0040362e-01
 -9.0237880e-01
  3.9703897e-01
 -9.8098558e-01
 -2.8183634e+00
  4.6873131e+00
  6.1431682e-01
  4.1607156e+00
 -1.1881320e-01
  1.5454468e+00
 -2.2977369e+00
  1.3970696e+00
 -9.6822798e-01
  1.0384418e-01
  1.1026033e+00
 -2.8262171e-01
 -1.1613470e+00
  2.0521886e+00
  3.4872234e+00
  1.7690477e-01
  2.3081710e+00
 -1.4531434e+00
 -1.0327692e-01
 -5.8459276e-01
  3.5020190e-01
  5.7516494e+00
 -3.0221572e+00
  5.2436316e-01
 -3.1177580e+00
  3.0455720e+00
  1.0387328e-01
  1.1276029e-01
  7.0874256e-01
  3.5023904e+00
 -1.7558445e+00
  1.2637317e+00
  9.3595991e+00
 -1.0003412e-01
  1.7979817e+00
 -3.1701107e+00
  1.1245631e-01
 -1.6045166e+00
  3.3271697e+00
  2.3689377e+00
 -1.0637506e+00
  1.2331481e+00
 -4.8223705e+00
 -4.9230671e-01
 -4.9208069e+00
  1.8376510e-01
 -4.3576088e+00
  4.6497750e+00
  2.8135049e+00
 -3.0938504e+00
  3.2311630e+00
  1.0493927e-01
  1.2312566e-01
  1.0499611e-01
 -3.9740226e+00
  4.1003585e+00
 -5.2068734e+00
 -1.0092482e-01
 -1.4640195e+00
  4.0937120e-01
 -1.2865316e+00
 -5.7635868e-01
  2.6399538e-01
 -1.1163680e-01
  2.3905167e-01
 -1.1141429e+00
 -1.4641391e-01
 -1.1849489e-01
  1.2853801e-01
 -1.0323163e-01
  2.6766498e+00
  1.0022654e-01
  1.0387165e-01
  1.7158408e-01
  6.3301220e+00
  8.7369782e-01
 -6.0255728e+00
  9.9654084e-01
  7.2306460e-01
  4.3367910e-01
 -1.3952902e-01
  1.1561141e-01
 -2.0145850e+00
 -3.4568899e+00
 -1.8184299e+00
  6.3514626e-01
 -1.5300387e+00
 -4.0390393e-01
 -6.3590229e-01
 -2.2294631e+00
 -1.1619519e-01
 -2.8393016e+00
  1.8460515e+00
 -3.7366064e+00
 -2.0870793e+00
  1.8809375e+00
  1.5606515e-01
  1.1308207e-01
 -1.7903031e-01
  1.0052428e-01
  1.6241167e+00
 -1.2494377e+00
 -2.0685625e+00
 -1.5383898e+00
  2.4616294e+00
  1.3163204e+00
  1.7204353e-01
  1.0563774e-01
  1.5609743e-01
  1.7259319e+00
  2.0028079e+00
 -6.4093906e-01
 -3.0771899e+00
  1.9609021e+00
 -2.2804070e-01
 -1.0372277e-01
 -1.6610777e-01
  1.0444990e-01
  5.1967961e-01
  3.4600782e-01
 -3.4630232e+00
  3.6168265e+00
  1.2739295e+00
  3.7421713e+00
  2.8497739e+00
  1.1227947e+00
  6.6447651e-01
  1.6502967e+00
  2.0601172e+00
  5.1753597e+00
  1.5378186e+00
  3.1276300e+00
 -3.3653560e+00
 -1.5160060e-01
  2.6565307e-01
  9.1366267e-01
  9.4504470e-01
  9.9925852e-01
  6.0847569e-01
 -1.1513251e+00
  4.8571725e+00
 -4.9320212e-01
  1.2553754e+00
  3.3061123e+00
 -3.9456160e+00
  7.3009324e-01
  1.0074551e-01
  1.0048470e-01
 -4.0419328e-01
 -1.1781514e-01
 -1.5747471e-01
  2.0617998e+00
  1.8198280e-01
  1.0202198e-01
  3.2431967e+00
  2.9107001e+00
 -6.7829013e-01
  1.0254068e+00
  1.2364278e+00
  1.1129662e+00
 -3.1023824e+00
  5.3481679e+00
  2.0907311e+00
  7.1004987e-01
 -4.5870727e-01
 -7.9938471e-01
  8.1188142e-01
 -3.5455194e+00
  1.0693405e-01
  1.9669595e-01
 -1.0295489e-01
 -1.5971607e-01
 -5.0883274e+00
  1.2534453e-01
  9.2575336e-01
  6.4799213e+00
 -9.7191215e-01
 -8.7544566e-01
 -2.8087380e+00
  1.3368702e+00
  1.0328772e+00
  7.8171271e-01
  1.6741040e+00
  4.8124298e-01
  6.1720842e-01
  1.4537019e-01
 -1.2694741e+00
 -2.0181561e+00
 -4.0056663e+00
  2.0733342e+00
  5.8363086e-01
  1.6819527e+00
  1.0187297e-01
 -1.2459495e+00
  5.0516385e-01
  1.0020667e-01
 -2.1862447e-01
 -2.5489237e+00
 -9.2986339e-01
  3.0084212e+00
  3.1074083e-01
 -7.6165795e-01
 -1.5808791e+00
 -2.7272341e+00
 -3.9467356e-01
  1.2216266e+00
 -1.5087196e+00
 -1.5358543e+00
  6.5199047e-01
 -2.2029650e+00
  1.0077173e+00
  2.7245298e-01
 -5.8997154e-01
 -1.0099418e-01
 -1.6505337e-01
 -1.0309999e-01
  1.0422473e-01
  1.6233763e+00
  1.0711677e-01
 -1.9535577e-01
  2.8529515e+00
  9.2102319e-01
  1.2245759e+00
  1.6216285e+00
 -2.3410275e+00
 -6.5475094e-01
 -2.1974943e+00
  1.0942017e-01
  8.1996137e-01
  1.5580119e-01
 -1.0444558e-01
 -8.1340426e-01
 -1.0712740e+00
 -7.5944436e-01
  2.0657194e+00
  9.9944049e-01
 -2.3401830e+00
  1.8569558e+00
 -1.3529437e+00
 -3.0877566e-01
  2.7055683e+00
 -1.7191708e-01
 -1.0923603e+00
  7.1841532e-01
 -5.0337672e-01
  1.2770330e+00
 -1.0613622e-01
 -7.3927408e-01
  2.7004256e+00
  7.5238317e-01
 -2.0096495e+00
  9.0784860e-01
  1.3643754e-01
 -2.5785470e+00
  1.0054301e-01
 -7.3748219e-01
 -1.3579539e+00
 -3.0867164e+00
 -1.1293557e+00
 -1.6701919e-01
 -1.0006604e-01
 -3.5356264e+00
 -1.1340301e-01
 -1.4395213e-01
  1.4737370e+00
  1.0218445e-01
 -5.3441553e+00
  2.0906463e+00
 -1.0123959e+00
  3.8922071e-01
 -4.1562819e+00
  3.9220840e-01
 -2.7061369e+00
  3.1695964e+00
 -1.0673515e-01
 -3.2955286e-01
 -1.8608772e+00
  1.4088318e+00
  3.4842749e+00
 -1.6993893e+00
  1.2333637e+00
 -1.4888875e+00
  1.2807492e+00
 -3.5883811e+00
  3.2264858e-01
 -1.0259051e-01
  9.7664386e-01
  5.5281210e-01
  3.6050591e-01
  1.6411260e+00
 -1.3511051e+00
 -1.0719856e-01
  1.0001033e-01
 -6.8617266e-01
 -8.3685362e-01
  1.2257775e+00
  2.9021856e-01
  1.3886257e+00
  2.5592583e-01
  1.9043493e+00
 -5.3503746e-01
 -3.5522443e-01
 -3.3117092e-01
  9.0823126e-01
  8.1481868e-01
  1.9623281e+00
 -5.2144128e-01
  1.2738775e+00
 -1.2066671e-01
  1.3455058e+00
  5.7054076e+00
  1.4978343e+00
  1.0235098e-01
  1.5304018e+00
  4.2485633e+00
  4.1895928e+00
 -2.1264822e+00
  1.8644461e-01
  5.5388789e+00
 -2.0878415e+00
 -1.0098112e-01
  1.5633317e+00
  1.0048161e-01
  1.6634413e+00
  2.6591790e+00
 -6.0365325e-01
  1.0062413e-01
  2.9170415e+00
  8.4405959e-01
  2.7139676e+00
 -1.3266425e+00
  2.7285948e-01
 -3.0349352e+00
  2.5934334e+00
 -1.1076723e+00
 -1.6415379e+00
 -4.0473795e+00
  2.4474964e+00
 -1.2566179e+00
  1.7237513e+00
  8.3963478e-01
  2.0972216e+00
  1.0277395e-01
 -1.1020752e+00
  1.3694118e+00
 -3.6133764e+00
  3.3026135e+00
  1.5680287e+00
  1.6091981e+00
  2.2612889e+00
  4.1295762e+00
  1.2148370e+00
  2.1854372e+00
 -2.4398627e+00
 -1.0025904e-01
 -3.0684969e-01
 -2.4401879e+00
  1.7911240e-01
  2.2534192e-01
  1.5213712e+00
 -1.8836172e+00
  1.3013519e+00
 -1.2806304e+00
  2.4920902e+00
 -9.3030274e-01
  5.5019522e-01
 -1.9399290e-01
 -2.8498697e+00
 -1.4767262e+00
 -3.3736129e+00
 -7.2019035e-01
 -1.0310785e-01
  1.2270608e+00
 -1.5494704e+00
 -3.1416631e-01
  1.7160199e+00
 -1.1424010e+00
 -9.4756466e-01
 -2.0915008e+00
  1.0068398e-01
 -7.7123342e+00
 -1.3764583e+00
 -1.6153314e+00
  7.3041451e-01
  6.7860365e-01
  9.5211315e-01
 -2.9563491e+00
 -1.2031567e+00
  1.4506761e+00
 -7.1498322e-01
  8.5151106e-01
 -1.0061888e-01
 -3.0043492e+00
 -1.0704128e-01
  1.0553818e+00
 -5.2794439e-01
  4.4545263e-01
  2.1154497e+00
 -1.8718046e+00
  3.0276293e-01
  1.2448137e+00
  3.3422551e+00
  1.0169923e-01
  1.0082620e-01
 -1.0291660e-01
 -7.4322391e-01
  7.9080200e-01
  1.0152972e-01
  3.0615737e+00
 -5.6504726e-01
  3.9619646e+00
  2.7254170e-01
 -1.2140769e-01
 -4.1003630e-01
 -6.4792442e+00
 -1.7156694e+00
 -1.4724288e+00
  7.8438050e-01
  4.6967230e+00
 -3.8835833e+00
 -1.2329793e-01
  1.6312609e+00
 -5.2084273e-01
  4.2672529e+00
  1.0840968e+00
  6.7751509e-01
 -1.3450424e-01
 -1.6270502e+00
 -6.6327357e-01
  7.4027359e-01
 -1.7519757e+00
  6.7920882e-01
 -1.0008821e-01
 -3.8628471e-01
  1.0093636e-01
 -5.7551885e-01
  4.6971622e-01
 -2.0016220e+00
 -2.4899082e+00
 -2.2931249e+00
  1.0476440e-01
  2.9738724e+00
 -4.9194682e-01
 -1.0800191e+00
 -5.7155591e-01
 -4.1456124e-01
  2.8939588e+00
 -3.4973705e-01
 -2.4257767e+00
  1.6864547e+00
  7.0734084e-01
 -2.3332360e-01
 -1.2915190e-01
 -9.8195803e-01
 -1.6675936e-01
 -3.6092833e-01
 -7.9104042e-01
  1.5749090e+00
  2.5447910e+00
  1.2027386e+00
 -3.7164102e+00
  6.3428998e-01
 -6.5815341e-01
  9.7603124e-01
  1.9721204e+00
  1.1964077e+00
 -3.6070278e+00
  1.6640721e-01
  1.4274341e+00
  1.3533677e+00
  1.2925914e-01
  1.2214265e+00
 -1.8757002e+00
 -2.7088165e+00
 -2.2408381e-01
  4.1730803e-01
  3.2127874e+00
  1.1223086e-01
 -1.9184786e+00
 -4.8073235e+00
 -1.9944201e+00
 -9.9481159e-01
 -1.8567759e+00
 -4.3280607e-01
 -2.1054831e+00
  1.8836131e+00
 -6.2180275e-01
  3.3292098e+00
  1.5132657e+00
  7.2749478e-01
  6.5345246e-01
  6.4933783e-01
 -1.8712105e+00
  2.6830890e+00
  1.2550999e+00
 -2.1502161e+00
  1.1090109e-01
 -2.0280592e+00
 -1.2679240e-01
  3.8593596e-01
  3.5528901e-01
  1.0021573e-01
  6.7615581e+00
  1.1359510e-01
  1.1495092e+00
 -9.4971663e-01
  5.4348369e+00
  1.7150471e-01
  2.2244601e+00
  7.0637429e-01
  1.9937680e+00
  1.0494342e+00
 -3.4482512e-01
 -2.5011608e-01
  4.5194903e-01
  1.5399275e+00
  1.2030096e+00
 -1.1393456e+00
 -1.6500838e+00
  1.0130466e-01
  5.4242146e-01
  1.5322053e+00
  1.2296354e+00
  1.0010314e-01
 -2.0390544e+00
  1.2224672e+00
 -2.0464137e+00
  1.1585599e+00
  1.2107488e+00
 -1.6945522e+00
 -2.3069763e-01
 -9.1473073e-01
  1.2627028e-01
 -2.5653231e+00
  1.0024627e-01
 -1.8238127e+00
  8.5416603e-01
  4.5537001e-01
 -3.5848412e-01
  8.8394767e-01
 -7.7817452e-01
  6.8288451e-01
  1.9799864e+00
  1.0136410e+00
  1.7946398e+00
 -1.2680037e+00
 -2.0003705e-01
 -2.0029340e+00
 -5.9748507e-01
  8.9419377e-01
 -4.6261543e-01
  3.8748956e-01
 -6.7208534e-01
  3.4141976e-01
  2.0226912e+00
  1.0133621e-01
  1.2046430e+00
 -2.7563553e+00
 -8.0221277e-01
  2.5253727e+00
  1.0027359e-01
 -2.9930384e+00
 -6.2473707e+00
  1.9774530e+00
 -1.9759524e+00
  1.3173369e+00
  9.1086358e-01
  1.7719532e+00
 -8.1801242e-01
  2.7231917e+00
 -4.3818321e+00
  9.9579722e-01
  2.8667930e-01
  2.3178632e+00
  1.5296233e-01
  2.2160068e+00
  2.0978065e+00
 -2.6121347e+00
  1.1315985e-01
 -2.7901285e+00
 -1.1231517e+00
 -3.2131793e+00
  2.1009271e-01
  1.7758290e+00
  1.0173348e-01
 -1.2234046e+00
 -1.0867866e+00
 -1.8250840e+00
  1.6249627e+00
  1.5438609e+00
  1.3029134e+00
 -3.2698951e+00
 -1.8246148e+00
  6.6120559e-01
 -1.4277905e+00
  3.9091058e+00
 -1.0031611e-01
  4.9037918e-01
 -1.0719398e-01
  1.8402878e+00
 -2.1946874e+00
  3.5894728e-01
 -5.1994073e-01
 -1.3228264e+00
  6.5752739e-01
  1.0082262e-01
  4.3366961e+00
 -1.9646348e-01
  8.0141354e-01
  2.9478869e+00
 -1.0880638e+00
 -1.2952113e+00
 -3.6726838e-01
  2.1195037e+00
  2.5647512e-01
  1.0057423e-01
 -3.8208148e-01
 -4.3929541e-01
  2.5731385e+00
  1.0127593e-01
 -1.2701137e+00
 -1.0115618e+00
 -8.4261221e-01
  8.3393407e-01
  1.5483814e+00
  1.0325885e-01
  2.5068021e+00
 -2.5672445e+00
  1.7522855e+00
  1.5495431e+00
 -8.2138777e-01
  3.6558381e-01
  1.1745869e+00
 -1.3954420e+00
  2.6971271e+00
 -1.0928745e+00
  2.1788901e-01
 -2.2328825e+00
 -2.3774800e+00
  3.2660139e+00
  8.0096656e-01
  1.0050521e-01
 -4.7153106e-01
  6.5552527e-01
  3.1890788e+00
 -8.7909555e-01
 -2.5336864e+00
 -4.0398693e+00
  1.0019467e-01
 -9.6322012e-01
 -3.5664256e+00
  2.0615275e+00
 -1.7800039e-01
  1.0844223e-01
  2.2079699e+00
  3.9662200e-01
 -1.0031060e-01
 -2.1060941e+00
  3.9727247e-01
  1.7276555e-01
  4.7227862e-01
 -2.6109090e-01
 -7.4398625e-01
  9.0401977e-01
  4.6915126e+00
  1.9025358e+00
  3.9716530e+00
  2.1876550e+00
  3.1730902e+00
 -3.0622604e+00
 -2.3850770e+00
 -4.4173012e+00
  3.4728056e-01
 -3.3117527e-01
  1.0033295e-01
  2.8470380e+00
  3.4362054e-01
  4.5397964e-01
 -5.7443386e-01
  1.0004142e-01
  5.4646790e-01
  4.4776872e-01
 -2.6371579e+00
 -3.1206322e-01
  1.2655108e+00
 -1.0510415e+00
 -5.6424993e-01
 -1.0001046e-01
  1.1688310e+00
  1.2882998e+00
  1.6568887e+00
 -4.2274192e-01
  1.0042208e-01
 -1.0162142e-01
  8.7280059e-01
  5.0314230e-01
  8.6596024e-01
  1.1074541e+00
  1.1470431e+00
  1.0193314e-01
  1.7516021e+00
  7.5654525e-01
  1.6483518e-01
  1.2951894e+00
 -1.1253777e+00
 -1.4146144e+00
 -9.7689056e-01
  7.9079646e-01
  4.6027093e+00
  1.2483394e+00
 -2.8468215e+00
 -1.6815475e+00
 -1.8196939e+00
 -1.3990140e-01
 -1.3393980e+00
  1.1047451e+00
 -1.0331442e+00
  1.0094699e-01
 -6.2785034e+00
 -1.7116385e+00
  1.1851182e+00
 -5.6714308e-01
 -2.8070122e-01
  1.6059129e+00
 -9.5081985e-01
 -1.0005501e-01
 -1.0136395e-01
 -3.4817243e-01
  7.2093934e-01
 -6.7285657e-01
 -4.6138576e-01
  3.2761874e+00
  2.2615466e+00
 -2.9137449e+00
 -1.3961596e+00
 -3.5325198e+00
  2.7885079e+00
  3.9766631e+00
 -1.0915437e-01
 -1.2148746e+00
 -1.0400501e-01
 -1.0123048e+00
  2.0144255e+00
  1.0000557e-01
 -1.2575474e+00
  1.9170336e+00
 -3.2682576e+00
  4.9286622e-01
  2.3604345e+00
 -1.0249852e-01
  3.8321192e+00
  4.2474456e+00
 -9.4888872e-01
  1.8592307e-01
 -5.1374259e+00
 -1.2820847e+00
  5.0453007e-01
  7.2713840e-01
 -4.5243340e+00
  1.5099609e+00
  1.7766930e+00
 -1.5088080e+00
  1.6428165e+00
 -7.3475659e-01
 -2.5750046e+00
  1.0868467e-01
  2.2628212e+00
 -1.6774402e+00
  3.0755830e+00
 -6.1295718e-01
  1.0569241e-01
  1.0310903e-01
  3.9104322e-01
 -8.7083757e-01
  3.7151012e-01
 -1.8720758e+00
 -1.8857741e+00
 -1.9298625e+00
 -1.1500288e-01
 -1.5086437e+00
  2.8715667e-01
  2.9197302e+00
 -1.0387341e+00
  6.7018425e-01
 -3.3917910e-01
  1.0317690e-01
  3.4336152e+00
  2.3594174e-01
  4.0084115e-01
  4.2465148e+00
  1.1525441e-01
 -1.6134056e-01
 -1.7181569e+00
  2.1509895e+00
  1.0754286e-01
  7.3367363e-01
  4.5514429e-01
 -1.2901103e-01
 -1.1607225e-01
  7.5837445e-01
 -5.0831442e+00
 -6.3270574e+00
 -1.4050488e+00
  2.4357297e+00
  5.6129546e+00
  1.9628052e+00
 -2.3633080e+00
 -1.0062172e-01
 -2.7143767e+00
  1.9001694e+00
  3.7991397e+00
 -5.6170231e-01
  1.3106658e-01
 -2.5662131e+00
 -3.7166011e-01
 -8.3384299e-01
 -2.7127318e+00
  3.2099731e+00
  1.5109235e+00
  9.7860968e-01
 -2.7328916e+00
 -2.5835791e-01
  1.0000867e+00
 -1.7740251e+00
  8.7445825e-01
  1.0720452e-01
 -6.3133049e-01
 -1.2781987e+00
  1.0868416e+00
 -1.3581535e+00
 -1.9448100e+00
 -1.8052524e-01
 -1.0416014e-01
  1.2698848e+00
 -1.1148849e+00
  2.3616140e+00
 -2.0433934e+00
 -4.2543939e-01
  1.3101921e+00
 -2.6129687e+00
 -1.8011379e-01
  4.9054468e-01
 -7.0414972e-01
 -6.2748355e-01
 -1.0312805e-01
 -3.8823870e-01
  1.2888310e+00
  2.6701570e+00
 -2.0007875e+00
 -2.9405360e+00
  3.2747769e+00
 -1.1422521e+00
  1.0905185e+00
 -1.8960372e+00
  3.1326669e-01
  3.5540149e-01
 -1.0032372e-01
  8.4190482e-01
 -7.0476562e-01
 -1.0025521e-01
 -1.2006582e+00
  3.8020935e+00
 -1.5223755e-01
  5.7314968e-01
 -8.3291453e-01
 -2.1755655e+00
  4.8817573e-03
  4.8817573e-03
  4.8817573e-03
  4.8817573e-03
  4.8817573e-03
  4.8817573e-03
  4.8817573e-03
  4.8817573e-03
  4.8817573e-03
  4.8817573e-03
  4.8817573e-03
  4.8817573e-03
  4.8817573e-03
  1.9192597e-02
  1.9192597e-02
  1.9192597e-02
  1.9192597e-02
  1.9192597e-02
  1.9192597e-02
  1.9192597e-02
  1.9192597e-02
  1.9192597e-02
  4.3517157e-02
  4.3517157e-02
  4.3517157e-02
  4.3517157e-02
  4.3517157e-02
  4.3517157e-02
  4.3517157e-02
  4.3517157e-02
  4.3517157e-02
  1.3467092e-02
  1.3467092e-02
  1.3467092e-02
  1.3467092e-02
  1.3467092e-02
  1.3467092e-02
  1.3467092e-02
  1.3467092e-02
  1.3467092e-02
  1.0001439e-02
  1.0001439e-02
  1.0001439e-02
  1.0001439e-02
  1.0001439e-02
  1.0001439e-02
  1.0001439e-02
  1.0001439e-02
  1.0001439e-02
